[
  { "nodeid": 0, "depth": 0, "split": "f4", "split_condition": 5.98499966, "yes": 1, "no": 2, "missing": 1 , "children": [
    { "nodeid": 1, "depth": 1, "split": "f4", "split_condition": 5.70499992, "yes": 3, "no": 4, "missing": 3 , "children": [
      { "nodeid": 3, "depth": 2, "split": "f0", "split_condition": 0.605000019, "yes": 7, "no": 8, "missing": 7 , "children": [
        { "nodeid": 7, "leaf": -0.596164525 }, 
        { "nodeid": 8, "depth": 3, "split": "f17", "split_condition": 0.5, "yes": 15, "no": 16, "missing": 15 , "children": [
          { "nodeid": 15, "depth": 4, "split": "f18", "split_condition": 0.5, "yes": 29, "no": 30, "missing": 29 , "children": [
            { "nodeid": 29, "leaf": -0.526483774 }, 
            { "nodeid": 30, "leaf": -0.269565225 }
          ]}, 
          { "nodeid": 16, "depth": 4, "split": "f10", "split_condition": 0.5, "yes": 31, "no": 32, "missing": 31 , "children": [
            { "nodeid": 31, "leaf": 0.175609753 }, 
            { "nodeid": 32, "leaf": -0.5 }
          ]}
        ]}
      ]}, 
      { "nodeid": 4, "depth": 2, "split": "f14", "split_condition": 0.5, "yes": 9, "no": 10, "missing": 9 , "children": [
        { "nodeid": 9, "depth": 3, "split": "f13", "split_condition": 0.5, "yes": 17, "no": 18, "missing": 17 , "children": [
          { "nodeid": 17, "depth": 4, "split": "f10", "split_condition": 0.5, "yes": 33, "no": 34, "missing": 33 , "children": [
            { "nodeid": 33, "leaf": 0.0982233584 }, 
            { "nodeid": 34, "leaf": -0.525000036 }
          ]}, 
          { "nodeid": 18, "depth": 4, "split": "f4", "split_condition": 5.88500023, "yes": 35, "no": 36, "missing": 35 , "children": [
            { "nodeid": 35, "leaf": -0.478740185 }, 
            { "nodeid": 36, "leaf": -0.137662351 }
          ]}
        ]}, 
        { "nodeid": 10, "depth": 3, "split": "f4", "split_condition": 5.93499994, "yes": 19, "no": 20, "missing": 19 , "children": [
          { "nodeid": 19, "depth": 4, "split": "f3", "split_condition": 6.05500031, "yes": 37, "no": 38, "missing": 37 , "children": [
            { "nodeid": 37, "leaf": -0.581852615 }, 
            { "nodeid": 38, "leaf": -0.150000006 }
          ]}, 
          { "nodeid": 20, "depth": 4, "split": "f5", "split_condition": 3.69500017, "yes": 39, "no": 40, "missing": 39 , "children": [
            { "nodeid": 39, "leaf": -0.466666698 }, 
            { "nodeid": 40, "leaf": -0.13333334 }
          ]}
        ]}
      ]}
    ]}, 
    { "nodeid": 2, "depth": 1, "split": "f0", "split_condition": 0.894999981, "yes": 5, "no": 6, "missing": 5 , "children": [
      { "nodeid": 5, "depth": 2, "split": "f14", "split_condition": 0.5, "yes": 11, "no": 12, "missing": 11 , "children": [
        { "nodeid": 11, "depth": 3, "split": "f11", "split_condition": 0.5, "yes": 21, "no": 22, "missing": 21 , "children": [
          { "nodeid": 21, "depth": 4, "split": "f5", "split_condition": 3.51499987, "yes": 41, "no": 42, "missing": 41 , "children": [
            { "nodeid": 41, "leaf": -0.391304374 }, 
            { "nodeid": 42, "leaf": 0.320496917 }
          ]}, 
          { "nodeid": 22, "leaf": -0.514285743 }
        ]}, 
        { "nodeid": 12, "depth": 3, "split": "f5", "split_condition": 3.67500019, "yes": 23, "no": 24, "missing": 23 , "children": [
          { "nodeid": 23, "depth": 4, "split": "f6", "split_condition": 0.5, "yes": 43, "no": 44, "missing": 43 , "children": [
            { "nodeid": 43, "leaf": -0.541463435 }, 
            { "nodeid": 44, "leaf": -0.300000012 }
          ]}, 
          { "nodeid": 24, "depth": 4, "split": "f6", "split_condition": 0.5, "yes": 45, "no": 46, "missing": 45 , "children": [
            { "nodeid": 45, "leaf": -0.270967752 }, 
            { "nodeid": 46, "leaf": 0.200000018 }
          ]}
        ]}
      ]}, 
      { "nodeid": 6, "depth": 2, "split": "f4", "split_condition": 6.07499981, "yes": 13, "no": 14, "missing": 13 , "children": [
        { "nodeid": 13, "depth": 3, "split": "f11", "split_condition": 0.5, "yes": 25, "no": 26, "missing": 25 , "children": [
          { "nodeid": 25, "depth": 4, "split": "f0", "split_condition": 0.939999998, "yes": 47, "no": 48, "missing": 47 , "children": [
            { "nodeid": 47, "leaf": 0.450000018 }, 
            { "nodeid": 48, "leaf": 0.0300000012 }
          ]}, 
          { "nodeid": 26, "leaf": -0.388235331 }
        ]}, 
        { "nodeid": 14, "depth": 3, "split": "f4", "split_condition": 6.30500031, "yes": 27, "no": 28, "missing": 27 , "children": [
          { "nodeid": 27, "depth": 4, "split": "f11", "split_condition": 0.5, "yes": 49, "no": 50, "missing": 49 , "children": [
            { "nodeid": 49, "leaf": 0.543390393 }, 
            { "nodeid": 50, "leaf": 0.263999999 }
          ]}, 
          { "nodeid": 28, "depth": 4, "split": "f1", "split_condition": 55.0999985, "yes": 51, "no": 52, "missing": 51 , "children": [
            { "nodeid": 51, "leaf": 0.0545454584 }, 
            { "nodeid": 52, "leaf": 0.592286825 }
          ]}
        ]}
      ]}
    ]}
  ]},
  { "nodeid": 0, "depth": 0, "split": "f4", "split_condition": 5.93499994, "yes": 1, "no": 2, "missing": 1 , "children": [
    { "nodeid": 1, "depth": 1, "split": "f4", "split_condition": 5.66499996, "yes": 3, "no": 4, "missing": 3 , "children": [
      { "nodeid": 3, "depth": 2, "split": "f0", "split_condition": 0.925000012, "yes": 7, "no": 8, "missing": 7 , "children": [
        { "nodeid": 7, "depth": 3, "split": "f4", "split_condition": 5.38500023, "yes": 15, "no": 16, "missing": 15 , "children": [
          { "nodeid": 15, "leaf": -0.46220696 }, 
          { "nodeid": 16, "depth": 4, "split": "f17", "split_condition": 0.5, "yes": 29, "no": 30, "missing": 29 , "children": [
            { "nodeid": 29, "leaf": -0.421730042 }, 
            { "nodeid": 30, "leaf": 0.000735659327 }
          ]}
        ]}, 
        { "nodeid": 8, "leaf": 0.431901336 }
      ]}, 
      { "nodeid": 4, "depth": 2, "split": "f14", "split_condition": 0.5, "yes": 9, "no": 10, "missing": 9 , "children": [
        { "nodeid": 9, "depth": 3, "split": "f13", "split_condition": 0.5, "yes": 17, "no": 18, "missing": 17 , "children": [
          { "nodeid": 17, "depth": 4, "split": "f10", "split_condition": 0.5, "yes": 31, "no": 32, "missing": 31 , "children": [
            { "nodeid": 31, "leaf": 0.0181766264 }, 
            { "nodeid": 32, "leaf": -0.422734082 }
          ]}, 
          { "nodeid": 18, "depth": 4, "split": "f4", "split_condition": 5.83500004, "yes": 33, "no": 34, "missing": 33 , "children": [
            { "nodeid": 33, "leaf": -0.404054433 }, 
            { "nodeid": 34, "leaf": -0.198103383 }
          ]}
        ]}, 
        { "nodeid": 10, "depth": 3, "split": "f0", "split_condition": 0.980000019, "yes": 19, "no": 20, "missing": 19 , "children": [
          { "nodeid": 19, "leaf": -0.453356951 }, 
          { "nodeid": 20, "leaf": -0.137256116 }
        ]}
      ]}
    ]}, 
    { "nodeid": 2, "depth": 1, "split": "f0", "split_condition": 0.894999981, "yes": 5, "no": 6, "missing": 5 , "children": [
      { "nodeid": 5, "depth": 2, "split": "f14", "split_condition": 0.5, "yes": 11, "no": 12, "missing": 11 , "children": [
        { "nodeid": 11, "depth": 3, "split": "f11", "split_condition": 0.5, "yes": 21, "no": 22, "missing": 21 , "children": [
          { "nodeid": 21, "depth": 4, "split": "f10", "split_condition": 0.5, "yes": 35, "no": 36, "missing": 35 , "children": [
            { "nodeid": 35, "leaf": 0.256187111 }, 
            { "nodeid": 36, "leaf": -0.237778783 }
          ]}, 
          { "nodeid": 22, "leaf": -0.480260849 }
        ]}, 
        { "nodeid": 12, "depth": 3, "split": "f4", "split_condition": 6.11499977, "yes": 23, "no": 24, "missing": 23 , "children": [
          { "nodeid": 23, "depth": 4, "split": "f1", "split_condition": 61.75, "yes": 37, "no": 38, "missing": 37 , "children": [
            { "nodeid": 37, "leaf": -0.388927072 }, 
            { "nodeid": 38, "leaf": -0.1769173 }
          ]}, 
          { "nodeid": 24, "depth": 4, "split": "f3", "split_condition": 6.11499977, "yes": 39, "no": 40, "missing": 39 , "children": [
            { "nodeid": 39, "leaf": 0.369409263 }, 
            { "nodeid": 40, "leaf": -0.146343857 }
          ]}
        ]}
      ]}, 
      { "nodeid": 6, "depth": 2, "split": "f4", "split_condition": 6.13500023, "yes": 13, "no": 14, "missing": 13 , "children": [
        { "nodeid": 13, "depth": 3, "split": "f11", "split_condition": 0.5, "yes": 25, "no": 26, "missing": 25 , "children": [
          { "nodeid": 25, "depth": 4, "split": "f10", "split_condition": 0.5, "yes": 41, "no": 42, "missing": 41 , "children": [
            { "nodeid": 41, "leaf": 0.380817771 }, 
            { "nodeid": 42, "leaf": 0.0206506029 }
          ]}, 
          { "nodeid": 26, "depth": 4, "split": "f3", "split_condition": 6.18000031, "yes": 43, "no": 44, "missing": 43 , "children": [
            { "nodeid": 43, "leaf": -0.2841838 }, 
            { "nodeid": 44, "leaf": 0.157763362 }
          ]}
        ]}, 
        { "nodeid": 14, "depth": 3, "split": "f5", "split_condition": 3.76499987, "yes": 27, "no": 28, "missing": 27 , "children": [
          { "nodeid": 27, "depth": 4, "split": "f3", "split_condition": 6.67999983, "yes": 45, "no": 46, "missing": 45 , "children": [
            { "nodeid": 45, "leaf": 0.341881514 }, 
            { "nodeid": 46, "leaf": -0.0467571504 }
          ]}, 
          { "nodeid": 28, "depth": 4, "split": "f1", "split_condition": 64.3500061, "yes": 47, "no": 48, "missing": 47 , "children": [
            { "nodeid": 47, "leaf": 0.456901819 }, 
            { "nodeid": 48, "leaf": 0.385068536 }
          ]}
        ]}
      ]}
    ]}
  ]},
  { "nodeid": 0, "depth": 0, "split": "f0", "split_condition": 0.795000017, "yes": 1, "no": 2, "missing": 1 , "children": [
    { "nodeid": 1, "depth": 1, "split": "f5", "split_condition": 3.49499989, "yes": 3, "no": 4, "missing": 3 , "children": [
      { "nodeid": 3, "depth": 2, "split": "f5", "split_condition": 3.35500002, "yes": 7, "no": 8, "missing": 7 , "children": [
        { "nodeid": 7, "depth": 3, "split": "f3", "split_condition": 5.13500023, "yes": 15, "no": 16, "missing": 15 , "children": [
          { "nodeid": 15, "leaf": -0.403538287 }, 
          { "nodeid": 16, "depth": 4, "split": "f17", "split_condition": 0.5, "yes": 31, "no": 32, "missing": 31 , "children": [
            { "nodeid": 31, "leaf": -0.394764692 }, 
            { "nodeid": 32, "leaf": -0.223321632 }
          ]}
        ]}, 
        { "nodeid": 8, "depth": 3, "split": "f18", "split_condition": 0.5, "yes": 17, "no": 18, "missing": 17 , "children": [
          { "nodeid": 17, "depth": 4, "split": "f17", "split_condition": 0.5, "yes": 33, "no": 34, "missing": 33 , "children": [
            { "nodeid": 33, "leaf": -0.385542482 }, 
            { "nodeid": 34, "leaf": 0.0320113003 }
          ]}, 
          { "nodeid": 18, "depth": 4, "split": "f4", "split_condition": 5.5250001, "yes": 35, "no": 36, "missing": 35 , "children": [
            { "nodeid": 35, "leaf": -0.230848834 }, 
            { "nodeid": 36, "leaf": 0.129534543 }
          ]}
        ]}
      ]}, 
      { "nodeid": 4, "depth": 2, "split": "f4", "split_condition": 5.74499989, "yes": 9, "no": 10, "missing": 9 , "children": [
        { "nodeid": 9, "depth": 3, "split": "f17", "split_condition": 0.5, "yes": 19, "no": 20, "missing": 19 , "children": [
          { "nodeid": 19, "depth": 4, "split": "f18", "split_condition": 0.5, "yes": 37, "no": 38, "missing": 37 , "children": [
            { "nodeid": 37, "leaf": -0.312376261 }, 
            { "nodeid": 38, "leaf": -0.0109471064 }
          ]}, 
          { "nodeid": 20, "depth": 4, "split": "f9", "split_condition": 0.5, "yes": 39, "no": 40, "missing": 39 , "children": [
            { "nodeid": 39, "leaf": 0.182759076 }, 
            { "nodeid": 40, "leaf": -0.395956576 }
          ]}
        ]}, 
        { "nodeid": 10, "depth": 3, "split": "f14", "split_condition": 0.5, "yes": 21, "no": 22, "missing": 21 , "children": [
          { "nodeid": 21, "depth": 4, "split": "f11", "split_condition": 0.5, "yes": 41, "no": 42, "missing": 41 , "children": [
            { "nodeid": 41, "leaf": 0.0566214062 }, 
            { "nodeid": 42, "leaf": -0.544002354 }
          ]}, 
          { "nodeid": 22, "leaf": -0.368022591 }
        ]}
      ]}
    ]}, 
    { "nodeid": 2, "depth": 1, "split": "f4", "split_condition": 6.07499981, "yes": 5, "no": 6, "missing": 5 , "children": [
      { "nodeid": 5, "depth": 2, "split": "f11", "split_condition": 0.5, "yes": 11, "no": 12, "missing": 11 , "children": [
        { "nodeid": 11, "depth": 3, "split": "f14", "split_condition": 0.5, "yes": 23, "no": 24, "missing": 23 , "children": [
          { "nodeid": 23, "depth": 4, "split": "f10", "split_condition": 0.5, "yes": 43, "no": 44, "missing": 43 , "children": [
            { "nodeid": 43, "leaf": 0.226214185 }, 
            { "nodeid": 44, "leaf": -0.157155544 }
          ]}, 
          { "nodeid": 24, "depth": 4, "split": "f0", "split_condition": 0.894999981, "yes": 45, "no": 46, "missing": 45 , "children": [
            { "nodeid": 45, "leaf": -0.250083864 }, 
            { "nodeid": 46, "leaf": 0.05874395 }
          ]}
        ]}, 
        { "nodeid": 12, "depth": 3, "split": "f0", "split_condition": 0.935000002, "yes": 25, "no": 26, "missing": 25 , "children": [
          { "nodeid": 25, "leaf": -0.43604058 }, 
          { "nodeid": 26, "leaf": 0.0112329489 }
        ]}
      ]}, 
      { "nodeid": 6, "depth": 2, "split": "f5", "split_condition": 3.73500013, "yes": 13, "no": 14, "missing": 13 , "children": [
        { "nodeid": 13, "depth": 3, "split": "f0", "split_condition": 0.894999981, "yes": 27, "no": 28, "missing": 27 , "children": [
          { "nodeid": 27, "depth": 4, "split": "f2", "split_condition": 60.5, "yes": 47, "no": 48, "missing": 47 , "children": [
            { "nodeid": 47, "leaf": 0.134744421 }, 
            { "nodeid": 48, "leaf": -0.359542251 }
          ]}, 
          { "nodeid": 28, "depth": 4, "split": "f11", "split_condition": 0.5, "yes": 49, "no": 50, "missing": 49 , "children": [
            { "nodeid": 49, "leaf": 0.261509895 }, 
            { "nodeid": 50, "leaf": -0.0704026818 }
          ]}
        ]}, 
        { "nodeid": 14, "depth": 3, "split": "f4", "split_condition": 6.26500034, "yes": 29, "no": 30, "missing": 29 , "children": [
          { "nodeid": 29, "depth": 4, "split": "f10", "split_condition": 0.5, "yes": 51, "no": 52, "missing": 51 , "children": [
            { "nodeid": 51, "leaf": 0.344918281 }, 
            { "nodeid": 52, "leaf": 0.162894443 }
          ]}, 
          { "nodeid": 30, "depth": 4, "split": "f5", "split_condition": 3.93499994, "yes": 53, "no": 54, "missing": 53 , "children": [
            { "nodeid": 53, "leaf": 0.359951854 }, 
            { "nodeid": 54, "leaf": 0.398660779 }
          ]}
        ]}
      ]}
    ]}
  ]},
  { "nodeid": 0, "depth": 0, "split": "f0", "split_condition": 0.824999988, "yes": 1, "no": 2, "missing": 1 , "children": [
    { "nodeid": 1, "depth": 1, "split": "f4", "split_condition": 5.66499996, "yes": 3, "no": 4, "missing": 3 , "children": [
      { "nodeid": 3, "depth": 2, "split": "f4", "split_condition": 5.38500023, "yes": 7, "no": 8, "missing": 7 , "children": [
        { "nodeid": 7, "depth": 3, "split": "f3", "split_condition": 5.13500023, "yes": 15, "no": 16, "missing": 15 , "children": [
          { "nodeid": 15, "leaf": -0.368848056 }, 
          { "nodeid": 16, "depth": 4, "split": "f17", "split_condition": 0.5, "yes": 31, "no": 32, "missing": 31 , "children": [
            { "nodeid": 31, "leaf": -0.359298944 }, 
            { "nodeid": 32, "leaf": -0.197166622 }
          ]}
        ]}, 
        { "nodeid": 8, "depth": 3, "split": "f12", "split_condition": 0.5, "yes": 17, "no": 18, "missing": 17 , "children": [
          { "nodeid": 17, "depth": 4, "split": "f17", "split_condition": 0.5, "yes": 33, "no": 34, "missing": 33 , "children": [
            { "nodeid": 33, "leaf": -0.325082421 }, 
            { "nodeid": 34, "leaf": 0.0053505078 }
          ]}, 
          { "nodeid": 18, "depth": 4, "split": "f4", "split_condition": 5.58500004, "yes": 35, "no": 36, "missing": 35 , "children": [
            { "nodeid": 35, "leaf": 0.0223610923 }, 
            { "nodeid": 36, "leaf": 0.660786331 }
          ]}
        ]}
      ]}, 
      { "nodeid": 4, "depth": 2, "split": "f2", "split_condition": 57.0499992, "yes": 9, "no": 10, "missing": 9 , "children": [
        { "nodeid": 9, "depth": 3, "split": "f14", "split_condition": 0.5, "yes": 19, "no": 20, "missing": 19 , "children": [
          { "nodeid": 19, "depth": 4, "split": "f13", "split_condition": 0.5, "yes": 37, "no": 38, "missing": 37 , "children": [
            { "nodeid": 37, "leaf": 0.107606463 }, 
            { "nodeid": 38, "leaf": -0.173963606 }
          ]}, 
          { "nodeid": 20, "depth": 4, "split": "f4", "split_condition": 5.93499994, "yes": 39, "no": 40, "missing": 39 , "children": [
            { "nodeid": 39, "leaf": -0.346030831 }, 
            { "nodeid": 40, "leaf": -0.105164982 }
          ]}
        ]}, 
        { "nodeid": 10, "depth": 3, "split": "f12", "split_condition": 0.5, "yes": 21, "no": 22, "missing": 21 , "children": [
          { "nodeid": 21, "depth": 4, "split": "f9", "split_condition": 0.5, "yes": 41, "no": 42, "missing": 41 , "children": [
            { "nodeid": 41, "leaf": -0.185058698 }, 
            { "nodeid": 42, "leaf": -0.463936061 }
          ]}, 
          { "nodeid": 22, "depth": 4, "split": "f5", "split_condition": 3.45499992, "yes": 43, "no": 44, "missing": 43 , "children": [
            { "nodeid": 43, "leaf": 0.147824392 }, 
            { "nodeid": 44, "leaf": 0.488640845 }
          ]}
        ]}
      ]}
    ]}, 
    { "nodeid": 2, "depth": 1, "split": "f4", "split_condition": 6.07499981, "yes": 5, "no": 6, "missing": 5 , "children": [
      { "nodeid": 5, "depth": 2, "split": "f4", "split_condition": 6.00500011, "yes": 11, "no": 12, "missing": 11 , "children": [
        { "nodeid": 11, "depth": 3, "split": "f16", "split_condition": 0.5, "yes": 23, "no": 24, "missing": 23 , "children": [
          { "nodeid": 23, "depth": 4, "split": "f15", "split_condition": 0.5, "yes": 45, "no": 46, "missing": 45 , "children": [
            { "nodeid": 45, "leaf": -0.213495657 }, 
            { "nodeid": 46, "leaf": 0.201950118 }
          ]}, 
          { "nodeid": 24, "depth": 4, "split": "f10", "split_condition": 0.5, "yes": 47, "no": 48, "missing": 47 , "children": [
            { "nodeid": 47, "leaf": 0.38070032 }, 
            { "nodeid": 48, "leaf": -0.068599835 }
          ]}
        ]}, 
        { "nodeid": 12, "depth": 3, "split": "f1", "split_condition": 66.6499939, "yes": 25, "no": 26, "missing": 25 , "children": [
          { "nodeid": 25, "depth": 4, "split": "f1", "split_condition": 61.6500015, "yes": 49, "no": 50, "missing": 49 , "children": [
            { "nodeid": 49, "leaf": -0.193180844 }, 
            { "nodeid": 50, "leaf": 0.236364096 }
          ]}, 
          { "nodeid": 26, "depth": 4, "split": "f0", "split_condition": 1.005, "yes": 51, "no": 52, "missing": 51 , "children": [
            { "nodeid": 51, "leaf": -0.436517924 }, 
            { "nodeid": 52, "leaf": 0.0703098327 }
          ]}
        ]}
      ]}, 
      { "nodeid": 6, "depth": 2, "split": "f4", "split_condition": 6.26500034, "yes": 13, "no": 14, "missing": 13 , "children": [
        { "nodeid": 13, "depth": 3, "split": "f11", "split_condition": 0.5, "yes": 27, "no": 28, "missing": 27 , "children": [
          { "nodeid": 27, "depth": 4, "split": "f10", "split_condition": 0.5, "yes": 53, "no": 54, "missing": 53 , "children": [
            { "nodeid": 53, "leaf": 0.305992037 }, 
            { "nodeid": 54, "leaf": 0.10956642 }
          ]}, 
          { "nodeid": 28, "depth": 4, "split": "f4", "split_condition": 6.17500019, "yes": 55, "no": 56, "missing": 55 , "children": [
            { "nodeid": 55, "leaf": -0.210678831 }, 
            { "nodeid": 56, "leaf": 0.129798889 }
          ]}
        ]}, 
        { "nodeid": 14, "depth": 3, "split": "f5", "split_condition": 3.80499983, "yes": 29, "no": 30, "missing": 29 , "children": [
          { "nodeid": 29, "depth": 4, "split": "f1", "split_condition": 56.1500015, "yes": 57, "no": 58, "missing": 57 , "children": [
            { "nodeid": 57, "leaf": -0.185022339 }, 
            { "nodeid": 58, "leaf": 0.260264724 }
          ]}, 
          { "nodeid": 30, "depth": 4, "split": "f1", "split_condition": 64.3500061, "yes": 59, "no": 60, "missing": 59 , "children": [
            { "nodeid": 59, "leaf": 0.361259282 }, 
            { "nodeid": 60, "leaf": 0.291303694 }
          ]}
        ]}
      ]}
    ]}
  ]},
  { "nodeid": 0, "depth": 0, "split": "f0", "split_condition": 0.764999986, "yes": 1, "no": 2, "missing": 1 , "children": [
    { "nodeid": 1, "depth": 1, "split": "f4", "split_condition": 5.58500004, "yes": 3, "no": 4, "missing": 3 , "children": [
      { "nodeid": 3, "depth": 2, "split": "f3", "split_condition": 5.32499981, "yes": 7, "no": 8, "missing": 7 , "children": [
        { "nodeid": 7, "depth": 3, "split": "f3", "split_condition": 5.13500023, "yes": 15, "no": 16, "missing": 15 , "children": [
          { "nodeid": 15, "leaf": -0.347211421 }, 
          { "nodeid": 16, "depth": 4, "split": "f17", "split_condition": 0.5, "yes": 31, "no": 32, "missing": 31 , "children": [
            { "nodeid": 31, "leaf": -0.335444391 }, 
            { "nodeid": 32, "leaf": -0.189051315 }
          ]}
        ]}, 
        { "nodeid": 8, "depth": 3, "split": "f17", "split_condition": 0.5, "yes": 17, "no": 18, "missing": 17 , "children": [
          { "nodeid": 17, "depth": 4, "split": "f12", "split_condition": 0.5, "yes": 33, "no": 34, "missing": 33 , "children": [
            { "nodeid": 33, "leaf": -0.31704244 }, 
            { "nodeid": 34, "leaf": 0.0413865969 }
          ]}, 
          { "nodeid": 18, "depth": 4, "split": "f9", "split_condition": 0.5, "yes": 35, "no": 36, "missing": 35 , "children": [
            { "nodeid": 35, "leaf": 0.0670626685 }, 
            { "nodeid": 36, "leaf": -0.404658854 }
          ]}
        ]}
      ]}, 
      { "nodeid": 4, "depth": 2, "split": "f13", "split_condition": 0.5, "yes": 9, "no": 10, "missing": 9 , "children": [
        { "nodeid": 9, "depth": 3, "split": "f14", "split_condition": 0.5, "yes": 19, "no": 20, "missing": 19 , "children": [
          { "nodeid": 19, "depth": 4, "split": "f10", "split_condition": 0.5, "yes": 37, "no": 38, "missing": 37 , "children": [
            { "nodeid": 37, "leaf": 0.0252314545 }, 
            { "nodeid": 38, "leaf": -0.367800564 }
          ]}, 
          { "nodeid": 20, "leaf": -0.343807876 }
        ]}, 
        { "nodeid": 10, "depth": 3, "split": "f2", "split_condition": 57.2999992, "yes": 21, "no": 22, "missing": 21 , "children": [
          { "nodeid": 21, "depth": 4, "split": "f4", "split_condition": 5.75500011, "yes": 39, "no": 40, "missing": 39 , "children": [
            { "nodeid": 39, "leaf": -0.298454285 }, 
            { "nodeid": 40, "leaf": -0.104341187 }
          ]}, 
          { "nodeid": 22, "depth": 4, "split": "f0", "split_condition": 0.735000014, "yes": 41, "no": 42, "missing": 41 , "children": [
            { "nodeid": 41, "leaf": -0.360589534 }, 
            { "nodeid": 42, "leaf": -0.220664546 }
          ]}
        ]}
      ]}
    ]}, 
    { "nodeid": 2, "depth": 1, "split": "f4", "split_condition": 6.125, "yes": 5, "no": 6, "missing": 5 , "children": [
      { "nodeid": 5, "depth": 2, "split": "f11", "split_condition": 0.5, "yes": 11, "no": 12, "missing": 11 , "children": [
        { "nodeid": 11, "depth": 3, "split": "f14", "split_condition": 0.5, "yes": 23, "no": 24, "missing": 23 , "children": [
          { "nodeid": 23, "depth": 4, "split": "f10", "split_condition": 0.5, "yes": 43, "no": 44, "missing": 43 , "children": [
            { "nodeid": 43, "leaf": 0.192198724 }, 
            { "nodeid": 44, "leaf": -0.10853868 }
          ]}, 
          { "nodeid": 24, "depth": 4, "split": "f0", "split_condition": 0.879999995, "yes": 45, "no": 46, "missing": 45 , "children": [
            { "nodeid": 45, "leaf": -0.20513697 }, 
            { "nodeid": 46, "leaf": 0.0654383451 }
          ]}
        ]}, 
        { "nodeid": 12, "depth": 3, "split": "f3", "split_condition": 6.18000031, "yes": 25, "no": 26, "missing": 25 , "children": [
          { "nodeid": 25, "depth": 4, "split": "f4", "split_condition": 6.09500027, "yes": 47, "no": 48, "missing": 47 , "children": [
            { "nodeid": 47, "leaf": -0.382334709 }, 
            { "nodeid": 48, "leaf": -0.119767882 }
          ]}, 
          { "nodeid": 26, "leaf": 0.142539918 }
        ]}
      ]}, 
      { "nodeid": 6, "depth": 2, "split": "f5", "split_condition": 3.81500006, "yes": 13, "no": 14, "missing": 13 , "children": [
        { "nodeid": 13, "depth": 3, "split": "f10", "split_condition": 0.5, "yes": 27, "no": 28, "missing": 27 , "children": [
          { "nodeid": 27, "depth": 4, "split": "f5", "split_condition": 3.69500017, "yes": 49, "no": 50, "missing": 49 , "children": [
            { "nodeid": 49, "leaf": 0.0505543835 }, 
            { "nodeid": 50, "leaf": 0.251955986 }
          ]}, 
          { "nodeid": 28, "depth": 4, "split": "f16", "split_condition": 0.5, "yes": 51, "no": 52, "missing": 51 , "children": [
            { "nodeid": 51, "leaf": -0.234164476 }, 
            { "nodeid": 52, "leaf": 0.209036425 }
          ]}
        ]}, 
        { "nodeid": 14, "depth": 3, "split": "f1", "split_condition": 64.3500061, "yes": 29, "no": 30, "missing": 29 , "children": [
          { "nodeid": 29, "depth": 4, "split": "f5", "split_condition": 3.94500017, "yes": 53, "no": 54, "missing": 53 , "children": [
            { "nodeid": 53, "leaf": 0.291472971 }, 
            { "nodeid": 54, "leaf": 0.34059146 }
          ]}, 
          { "nodeid": 30, "depth": 4, "split": "f4", "split_condition": 6.61499977, "yes": 55, "no": 56, "missing": 55 , "children": [
            { "nodeid": 55, "leaf": 0.108280525 }, 
            { "nodeid": 56, "leaf": 0.32944417 }
          ]}
        ]}
      ]}
    ]}
  ]},
  { "nodeid": 0, "depth": 0, "split": "f4", "split_condition": 5.88500023, "yes": 1, "no": 2, "missing": 1 , "children": [
    { "nodeid": 1, "depth": 1, "split": "f5", "split_condition": 3.375, "yes": 3, "no": 4, "missing": 3 , "children": [
      { "nodeid": 3, "depth": 2, "split": "f0", "split_condition": 0.894999981, "yes": 7, "no": 8, "missing": 7 , "children": [
        { "nodeid": 7, "depth": 3, "split": "f5", "split_condition": 3.19500017, "yes": 15, "no": 16, "missing": 15 , "children": [
          { "nodeid": 15, "leaf": -0.332061559 }, 
          { "nodeid": 16, "depth": 4, "split": "f17", "split_condition": 0.5, "yes": 29, "no": 30, "missing": 29 , "children": [
            { "nodeid": 29, "leaf": -0.30865711 }, 
            { "nodeid": 30, "leaf": -0.0889434591 }
          ]}
        ]}, 
        { "nodeid": 8, "leaf": 0.264807254 }
      ]}, 
      { "nodeid": 4, "depth": 2, "split": "f9", "split_condition": 0.5, "yes": 9, "no": 10, "missing": 9 , "children": [
        { "nodeid": 9, "depth": 3, "split": "f10", "split_condition": 0.5, "yes": 17, "no": 18, "missing": 17 , "children": [
          { "nodeid": 17, "depth": 4, "split": "f17", "split_condition": 0.5, "yes": 31, "no": 32, "missing": 31 , "children": [
            { "nodeid": 31, "leaf": -0.0710369572 }, 
            { "nodeid": 32, "leaf": 0.408800334 }
          ]}, 
          { "nodeid": 18, "depth": 4, "split": "f1", "split_condition": 60.8499985, "yes": 33, "no": 34, "missing": 33 , "children": [
            { "nodeid": 33, "leaf": -0.177557319 }, 
            { "nodeid": 34, "leaf": -0.357992262 }
          ]}
        ]}, 
        { "nodeid": 10, "depth": 3, "split": "f12", "split_condition": 0.5, "yes": 19, "no": 20, "missing": 19 , "children": [
          { "nodeid": 19, "depth": 4, "split": "f1", "split_condition": 61.9500008, "yes": 35, "no": 36, "missing": 35 , "children": [
            { "nodeid": 35, "leaf": -0.251908422 }, 
            { "nodeid": 36, "leaf": -0.391772419 }
          ]}, 
          { "nodeid": 20, "leaf": 0.355683982 }
        ]}
      ]}
    ]}, 
    { "nodeid": 2, "depth": 1, "split": "f0", "split_condition": 0.894999981, "yes": 5, "no": 6, "missing": 5 , "children": [
      { "nodeid": 5, "depth": 2, "split": "f9", "split_condition": 0.5, "yes": 11, "no": 12, "missing": 11 , "children": [
        { "nodeid": 11, "depth": 3, "split": "f1", "split_condition": 60.0499992, "yes": 21, "no": 22, "missing": 21 , "children": [
          { "nodeid": 21, "depth": 4, "split": "f5", "split_condition": 3.51499987, "yes": 37, "no": 38, "missing": 37 , "children": [
            { "nodeid": 37, "leaf": -0.274619937 }, 
            { "nodeid": 38, "leaf": -0.0555471219 }
          ]}, 
          { "nodeid": 22, "depth": 4, "split": "f10", "split_condition": 0.5, "yes": 39, "no": 40, "missing": 39 , "children": [
            { "nodeid": 39, "leaf": 0.148894727 }, 
            { "nodeid": 40, "leaf": -0.181874558 }
          ]}
        ]}, 
        { "nodeid": 12, "depth": 3, "split": "f3", "split_condition": 5.93499994, "yes": 23, "no": 24, "missing": 23 , "children": [
          { "nodeid": 23, "depth": 4, "split": "f1", "split_condition": 60.5, "yes": 41, "no": 42, "missing": 41 , "children": [
            { "nodeid": 41, "leaf": -0.389638633 }, 
            { "nodeid": 42, "leaf": 0.0471614674 }
          ]}, 
          { "nodeid": 24, "depth": 4, "split": "f1", "split_condition": 62.8000031, "yes": 43, "no": 44, "missing": 43 , "children": [
            { "nodeid": 43, "leaf": -0.424053192 }, 
            { "nodeid": 44, "leaf": 0.111642107 }
          ]}
        ]}
      ]}, 
      { "nodeid": 6, "depth": 2, "split": "f4", "split_condition": 6.30500031, "yes": 13, "no": 14, "missing": 13 , "children": [
        { "nodeid": 13, "depth": 3, "split": "f1", "split_condition": 64.8500061, "yes": 25, "no": 26, "missing": 25 , "children": [
          { "nodeid": 25, "depth": 4, "split": "f11", "split_condition": 0.5, "yes": 45, "no": 46, "missing": 45 , "children": [
            { "nodeid": 45, "leaf": 0.245190606 }, 
            { "nodeid": 46, "leaf": -0.0364838168 }
          ]}, 
          { "nodeid": 26, "depth": 4, "split": "f16", "split_condition": 0.5, "yes": 47, "no": 48, "missing": 47 , "children": [
            { "nodeid": 47, "leaf": -0.0687443167 }, 
            { "nodeid": 48, "leaf": 0.285967618 }
          ]}
        ]}, 
        { "nodeid": 14, "depth": 3, "split": "f0", "split_condition": 0.995000005, "yes": 27, "no": 28, "missing": 27 , "children": [
          { "nodeid": 27, "depth": 4, "split": "f3", "split_condition": 6.53499985, "yes": 49, "no": 50, "missing": 49 , "children": [
            { "nodeid": 49, "leaf": 0.210649267 }, 
            { "nodeid": 50, "leaf": -0.52832824 }
          ]}, 
          { "nodeid": 28, "depth": 4, "split": "f1", "split_condition": 64.3500061, "yes": 51, "no": 52, "missing": 51 , "children": [
            { "nodeid": 51, "leaf": 0.321086973 }, 
            { "nodeid": 52, "leaf": 0.224305376 }
          ]}
        ]}
      ]}
    ]}
  ]},
  { "nodeid": 0, "depth": 0, "split": "f4", "split_condition": 5.76500034, "yes": 1, "no": 2, "missing": 1 , "children": [
    { "nodeid": 1, "depth": 1, "split": "f0", "split_condition": 0.595000029, "yes": 3, "no": 4, "missing": 3 , "children": [
      { "nodeid": 3, "depth": 2, "split": "f3", "split_condition": 5.13500023, "yes": 7, "no": 8, "missing": 7 , "children": [
        { "nodeid": 7, "leaf": -0.322935909 }, 
        { "nodeid": 8, "depth": 3, "split": "f12", "split_condition": 0.5, "yes": 15, "no": 16, "missing": 15 , "children": [
          { "nodeid": 15, "depth": 4, "split": "f17", "split_condition": 0.5, "yes": 29, "no": 30, "missing": 29 , "children": [
            { "nodeid": 29, "leaf": -0.315649778 }, 
            { "nodeid": 30, "leaf": -0.0815560371 }
          ]}, 
          { "nodeid": 16, "depth": 4, "split": "f8", "split_condition": 0.5, "yes": 31, "no": 32, "missing": 31 , "children": [
            { "nodeid": 31, "leaf": 0.291681051 }, 
            { "nodeid": 32, "leaf": -0.251555443 }
          ]}
        ]}
      ]}, 
      { "nodeid": 4, "depth": 2, "split": "f18", "split_condition": 0.5, "yes": 9, "no": 10, "missing": 9 , "children": [
        { "nodeid": 9, "depth": 3, "split": "f15", "split_condition": 0.5, "yes": 17, "no": 18, "missing": 17 , "children": [
          { "nodeid": 17, "depth": 4, "split": "f17", "split_condition": 0.5, "yes": 33, "no": 34, "missing": 33 , "children": [
            { "nodeid": 33, "leaf": -0.243518397 }, 
            { "nodeid": 34, "leaf": 0.0158522408 }
          ]}, 
          { "nodeid": 18, "depth": 4, "split": "f6", "split_condition": 0.5, "yes": 35, "no": 36, "missing": 35 , "children": [
            { "nodeid": 35, "leaf": -0.0869637802 }, 
            { "nodeid": 36, "leaf": 0.285880208 }
          ]}
        ]}, 
        { "nodeid": 10, "depth": 3, "split": "f10", "split_condition": 0.5, "yes": 19, "no": 20, "missing": 19 , "children": [
          { "nodeid": 19, "depth": 4, "split": "f9", "split_condition": 0.5, "yes": 37, "no": 38, "missing": 37 , "children": [
            { "nodeid": 37, "leaf": 0.265496582 }, 
            { "nodeid": 38, "leaf": -0.238844573 }
          ]}, 
          { "nodeid": 20, "leaf": -0.300934017 }
        ]}
      ]}
    ]}, 
    { "nodeid": 2, "depth": 1, "split": "f4", "split_condition": 6.14499998, "yes": 5, "no": 6, "missing": 5 , "children": [
      { "nodeid": 5, "depth": 2, "split": "f11", "split_condition": 0.5, "yes": 11, "no": 12, "missing": 11 , "children": [
        { "nodeid": 11, "depth": 3, "split": "f1", "split_condition": 60.3499985, "yes": 21, "no": 22, "missing": 21 , "children": [
          { "nodeid": 21, "depth": 4, "split": "f12", "split_condition": 0.5, "yes": 39, "no": 40, "missing": 39 , "children": [
            { "nodeid": 39, "leaf": -0.181308329 }, 
            { "nodeid": 40, "leaf": 0.38378343 }
          ]}, 
          { "nodeid": 22, "depth": 4, "split": "f14", "split_condition": 0.5, "yes": 41, "no": 42, "missing": 41 , "children": [
            { "nodeid": 41, "leaf": 0.126496136 }, 
            { "nodeid": 42, "leaf": -0.114977241 }
          ]}
        ]}, 
        { "nodeid": 12, "depth": 3, "split": "f5", "split_condition": 3.80499983, "yes": 23, "no": 24, "missing": 23 , "children": [
          { "nodeid": 23, "leaf": -0.422077209 }, 
          { "nodeid": 24, "depth": 4, "split": "f1", "split_condition": 62.6999969, "yes": 43, "no": 44, "missing": 43 , "children": [
            { "nodeid": 43, "leaf": 0.299706876 }, 
            { "nodeid": 44, "leaf": -0.248067275 }
          ]}
        ]}
      ]}, 
      { "nodeid": 6, "depth": 2, "split": "f5", "split_condition": 3.80499983, "yes": 13, "no": 14, "missing": 13 , "children": [
        { "nodeid": 13, "depth": 3, "split": "f10", "split_condition": 0.5, "yes": 25, "no": 26, "missing": 25 , "children": [
          { "nodeid": 25, "depth": 4, "split": "f5", "split_condition": 3.65500021, "yes": 45, "no": 46, "missing": 45 , "children": [
            { "nodeid": 45, "leaf": -0.0925374478 }, 
            { "nodeid": 46, "leaf": 0.176075548 }
          ]}, 
          { "nodeid": 26, "depth": 4, "split": "f3", "split_condition": 6.25500011, "yes": 47, "no": 48, "missing": 47 , "children": [
            { "nodeid": 47, "leaf": 0.0480185859 }, 
            { "nodeid": 48, "leaf": -0.269561678 }
          ]}
        ]}, 
        { "nodeid": 14, "depth": 3, "split": "f4", "split_condition": 6.45499992, "yes": 27, "no": 28, "missing": 27 , "children": [
          { "nodeid": 27, "depth": 4, "split": "f3", "split_condition": 6.48499966, "yes": 49, "no": 50, "missing": 49 , "children": [
            { "nodeid": 49, "leaf": 0.254657745 }, 
            { "nodeid": 50, "leaf": 0.00433378946 }
          ]}, 
          { "nodeid": 28, "depth": 4, "split": "f0", "split_condition": 0.985000014, "yes": 51, "no": 52, "missing": 51 , "children": [
            { "nodeid": 51, "leaf": -0.0816737935 }, 
            { "nodeid": 52, "leaf": 0.311998397 }
          ]}
        ]}
      ]}
    ]}
  ]},
  { "nodeid": 0, "depth": 0, "split": "f0", "split_condition": 0.894999981, "yes": 1, "no": 2, "missing": 1 , "children": [
    { "nodeid": 1, "depth": 1, "split": "f4", "split_condition": 5.58500004, "yes": 3, "no": 4, "missing": 3 , "children": [
      { "nodeid": 3, "depth": 2, "split": "f3", "split_condition": 5.19499969, "yes": 7, "no": 8, "missing": 7 , "children": [
        { "nodeid": 7, "depth": 3, "split": "f5", "split_condition": 3.14499998, "yes": 15, "no": 16, "missing": 15 , "children": [
          { "nodeid": 15, "leaf": -0.317252547 }, 
          { "nodeid": 16, "depth": 4, "split": "f12", "split_condition": 0.5, "yes": 29, "no": 30, "missing": 29 , "children": [
            { "nodeid": 29, "leaf": -0.294749141 }, 
            { "nodeid": 30, "leaf": 0.081546396 }
          ]}
        ]}, 
        { "nodeid": 8, "depth": 3, "split": "f12", "split_condition": 0.5, "yes": 17, "no": 18, "missing": 17 , "children": [
          { "nodeid": 17, "depth": 4, "split": "f17", "split_condition": 0.5, "yes": 31, "no": 32, "missing": 31 , "children": [
            { "nodeid": 31, "leaf": -0.280296952 }, 
            { "nodeid": 32, "leaf": -0.0571197234 }
          ]}, 
          { "nodeid": 18, "depth": 4, "split": "f8", "split_condition": 0.5, "yes": 33, "no": 34, "missing": 33 , "children": [
            { "nodeid": 33, "leaf": 0.239546105 }, 
            { "nodeid": 34, "leaf": -0.196450859 }
          ]}
        ]}
      ]}, 
      { "nodeid": 4, "depth": 2, "split": "f11", "split_condition": 0.5, "yes": 9, "no": 10, "missing": 9 , "children": [
        { "nodeid": 9, "depth": 3, "split": "f9", "split_condition": 0.5, "yes": 19, "no": 20, "missing": 19 , "children": [
          { "nodeid": 19, "depth": 4, "split": "f10", "split_condition": 0.5, "yes": 35, "no": 36, "missing": 35 , "children": [
            { "nodeid": 35, "leaf": 0.0418153629 }, 
            { "nodeid": 36, "leaf": -0.265363246 }
          ]}, 
          { "nodeid": 20, "depth": 4, "split": "f12", "split_condition": 0.5, "yes": 37, "no": 38, "missing": 37 , "children": [
            { "nodeid": 37, "leaf": -0.248891175 }, 
            { "nodeid": 38, "leaf": 0.314041138 }
          ]}
        ]}, 
        { "nodeid": 10, "leaf": -0.407313764 }
      ]}
    ]}, 
    { "nodeid": 2, "depth": 1, "split": "f4", "split_condition": 6.30500031, "yes": 5, "no": 6, "missing": 5 , "children": [
      { "nodeid": 5, "depth": 2, "split": "f10", "split_condition": 0.5, "yes": 11, "no": 12, "missing": 11 , "children": [
        { "nodeid": 11, "depth": 3, "split": "f1", "split_condition": 64.1499939, "yes": 21, "no": 22, "missing": 21 , "children": [
          { "nodeid": 21, "depth": 4, "split": "f11", "split_condition": 0.5, "yes": 39, "no": 40, "missing": 39 , "children": [
            { "nodeid": 39, "leaf": 0.241501525 }, 
            { "nodeid": 40, "leaf": -0.0376034454 }
          ]}, 
          { "nodeid": 22, "depth": 4, "split": "f13", "split_condition": 0.5, "yes": 41, "no": 42, "missing": 41 , "children": [
            { "nodeid": 41, "leaf": -0.0665428415 }, 
            { "nodeid": 42, "leaf": 0.228823617 }
          ]}
        ]}, 
        { "nodeid": 12, "depth": 3, "split": "f14", "split_condition": 0.5, "yes": 23, "no": 24, "missing": 23 , "children": [
          { "nodeid": 23, "depth": 4, "split": "f3", "split_condition": 6.30500031, "yes": 43, "no": 44, "missing": 43 , "children": [
            { "nodeid": 43, "leaf": 0.13505882 }, 
            { "nodeid": 44, "leaf": -0.518016458 }
          ]}, 
          { "nodeid": 24, "depth": 4, "split": "f4", "split_condition": 6.23499966, "yes": 45, "no": 46, "missing": 45 , "children": [
            { "nodeid": 45, "leaf": -0.667435527 }, 
            { "nodeid": 46, "leaf": -0.0108637568 }
          ]}
        ]}
      ]}, 
      { "nodeid": 6, "depth": 2, "split": "f5", "split_condition": 3.93499994, "yes": 13, "no": 14, "missing": 13 , "children": [
        { "nodeid": 13, "depth": 3, "split": "f11", "split_condition": 0.5, "yes": 25, "no": 26, "missing": 25 , "children": [
          { "nodeid": 25, "depth": 4, "split": "f2", "split_condition": 57.5, "yes": 47, "no": 48, "missing": 47 , "children": [
            { "nodeid": 47, "leaf": 0.052284956 }, 
            { "nodeid": 48, "leaf": 0.229112476 }
          ]}, 
          { "nodeid": 26, "depth": 4, "split": "f3", "split_condition": 6.50500011, "yes": 49, "no": 50, "missing": 49 , "children": [
            { "nodeid": 49, "leaf": 0.111430682 }, 
            { "nodeid": 50, "leaf": -0.620403826 }
          ]}
        ]}, 
        { "nodeid": 14, "depth": 3, "split": "f1", "split_condition": 64.3500061, "yes": 27, "no": 28, "missing": 27 , "children": [
          { "nodeid": 27, "depth": 4, "split": "f4", "split_condition": 6.50500011, "yes": 51, "no": 52, "missing": 51 , "children": [
            { "nodeid": 51, "leaf": 0.271652937 }, 
            { "nodeid": 52, "leaf": 0.310819179 }
          ]}, 
          { "nodeid": 28, "depth": 4, "split": "f4", "split_condition": 6.61499977, "yes": 53, "no": 54, "missing": 53 , "children": [
            { "nodeid": 53, "leaf": -0.238955602 }, 
            { "nodeid": 54, "leaf": 0.27374956 }
          ]}
        ]}
      ]}
    ]}
  ]},
  { "nodeid": 0, "depth": 0, "split": "f4", "split_condition": 5.73499966, "yes": 1, "no": 2, "missing": 1 , "children": [
    { "nodeid": 1, "depth": 1, "split": "f0", "split_condition": 0.584999979, "yes": 3, "no": 4, "missing": 3 , "children": [
      { "nodeid": 3, "depth": 2, "split": "f3", "split_condition": 5.13500023, "yes": 7, "no": 8, "missing": 7 , "children": [
        { "nodeid": 7, "depth": 3, "split": "f1", "split_condition": 65.3500061, "yes": 15, "no": 16, "missing": 15 , "children": [
          { "nodeid": 15, "leaf": -0.310819894 }, 
          { "nodeid": 16, "depth": 4, "split": "f3", "split_condition": 4.91499996, "yes": 31, "no": 32, "missing": 31 , "children": [
            { "nodeid": 31, "leaf": -0.186676025 }, 
            { "nodeid": 32, "leaf": -0.00875647459 }
          ]}
        ]}, 
        { "nodeid": 8, "depth": 3, "split": "f17", "split_condition": 0.5, "yes": 17, "no": 18, "missing": 17 , "children": [
          { "nodeid": 17, "depth": 4, "split": "f12", "split_condition": 0.5, "yes": 33, "no": 34, "missing": 33 , "children": [
            { "nodeid": 33, "leaf": -0.29790926 }, 
            { "nodeid": 34, "leaf": -0.00875839498 }
          ]}, 
          { "nodeid": 18, "depth": 4, "split": "f9", "split_condition": 0.5, "yes": 35, "no": 36, "missing": 35 , "children": [
            { "nodeid": 35, "leaf": 0.0590496697 }, 
            { "nodeid": 36, "leaf": -0.289734721 }
          ]}
        ]}
      ]}, 
      { "nodeid": 4, "depth": 2, "split": "f13", "split_condition": 0.5, "yes": 9, "no": 10, "missing": 9 , "children": [
        { "nodeid": 9, "depth": 3, "split": "f8", "split_condition": 0.5, "yes": 19, "no": 20, "missing": 19 , "children": [
          { "nodeid": 19, "depth": 4, "split": "f9", "split_condition": 0.5, "yes": 37, "no": 38, "missing": 37 , "children": [
            { "nodeid": 37, "leaf": 0.00519631337 }, 
            { "nodeid": 38, "leaf": -0.268230081 }
          ]}, 
          { "nodeid": 20, "depth": 4, "split": "f12", "split_condition": 0.5, "yes": 39, "no": 40, "missing": 39 , "children": [
            { "nodeid": 39, "leaf": -0.270699561 }, 
            { "nodeid": 40, "leaf": 0.204026282 }
          ]}
        ]}, 
        { "nodeid": 10, "depth": 3, "split": "f3", "split_condition": 5.75500011, "yes": 21, "no": 22, "missing": 21 , "children": [
          { "nodeid": 21, "leaf": -0.29883337 }, 
          { "nodeid": 22, "depth": 4, "split": "f1", "split_condition": 61.6500015, "yes": 41, "no": 42, "missing": 41 , "children": [
            { "nodeid": 41, "leaf": -0.250847787 }, 
            { "nodeid": 42, "leaf": 0.0851085484 }
          ]}
        ]}
      ]}
    ]}, 
    { "nodeid": 2, "depth": 1, "split": "f4", "split_condition": 6.26500034, "yes": 5, "no": 6, "missing": 5 , "children": [
      { "nodeid": 5, "depth": 2, "split": "f15", "split_condition": 0.5, "yes": 11, "no": 12, "missing": 11 , "children": [
        { "nodeid": 11, "depth": 3, "split": "f18", "split_condition": 0.5, "yes": 23, "no": 24, "missing": 23 , "children": [
          { "nodeid": 23, "depth": 4, "split": "f5", "split_condition": 3.51499987, "yes": 43, "no": 44, "missing": 43 , "children": [
            { "nodeid": 43, "leaf": -0.222828954 }, 
            { "nodeid": 44, "leaf": -0.0010654236 }
          ]}, 
          { "nodeid": 24, "depth": 4, "split": "f11", "split_condition": 0.5, "yes": 45, "no": 46, "missing": 45 , "children": [
            { "nodeid": 45, "leaf": 0.279591292 }, 
            { "nodeid": 46, "leaf": -0.2048309 }
          ]}
        ]}, 
        { "nodeid": 12, "depth": 3, "split": "f5", "split_condition": 3.44500017, "yes": 25, "no": 26, "missing": 25 , "children": [
          { "nodeid": 25, "depth": 4, "split": "f4", "split_condition": 5.81500006, "yes": 47, "no": 48, "missing": 47 , "children": [
            { "nodeid": 47, "leaf": -0.331981093 }, 
            { "nodeid": 48, "leaf": -0.0122383796 }
          ]}, 
          { "nodeid": 26, "depth": 4, "split": "f9", "split_condition": 0.5, "yes": 49, "no": 50, "missing": 49 , "children": [
            { "nodeid": 49, "leaf": 0.235979483 }, 
            { "nodeid": 50, "leaf": -0.00337728555 }
          ]}
        ]}
      ]}, 
      { "nodeid": 6, "depth": 2, "split": "f5", "split_condition": 3.93499994, "yes": 13, "no": 14, "missing": 13 , "children": [
        { "nodeid": 13, "depth": 3, "split": "f11", "split_condition": 0.5, "yes": 27, "no": 28, "missing": 27 , "children": [
          { "nodeid": 27, "depth": 4, "split": "f10", "split_condition": 0.5, "yes": 51, "no": 52, "missing": 51 , "children": [
            { "nodeid": 51, "leaf": 0.192651436 }, 
            { "nodeid": 52, "leaf": -0.0230928306 }
          ]}, 
          { "nodeid": 28, "depth": 4, "split": "f3", "split_condition": 6.50500011, "yes": 53, "no": 54, "missing": 53 , "children": [
            { "nodeid": 53, "leaf": 0.160262868 }, 
            { "nodeid": 54, "leaf": -0.359524071 }
          ]}
        ]}, 
        { "nodeid": 14, "depth": 3, "split": "f1", "split_condition": 64.3500061, "yes": 29, "no": 30, "missing": 29 , "children": [
          { "nodeid": 29, "depth": 4, "split": "f4", "split_condition": 6.50500011, "yes": 55, "no": 56, "missing": 55 , "children": [
            { "nodeid": 55, "leaf": 0.250022799 }, 
            { "nodeid": 56, "leaf": 0.302710235 }
          ]}, 
          { "nodeid": 30, "depth": 4, "split": "f0", "split_condition": 1.30999994, "yes": 57, "no": 58, "missing": 57 , "children": [
            { "nodeid": 57, "leaf": -0.0623122677 }, 
            { "nodeid": 58, "leaf": 0.27327472 }
          ]}
        ]}
      ]}
    ]}
  ]},
  { "nodeid": 0, "depth": 0, "split": "f5", "split_condition": 3.49499989, "yes": 1, "no": 2, "missing": 1 , "children": [
    { "nodeid": 1, "depth": 1, "split": "f0", "split_condition": 0.555000007, "yes": 3, "no": 4, "missing": 3 , "children": [
      { "nodeid": 3, "depth": 2, "split": "f0", "split_condition": 0.504999995, "yes": 7, "no": 8, "missing": 7 , "children": [
        { "nodeid": 7, "leaf": -0.307352513 }, 
        { "nodeid": 8, "depth": 3, "split": "f17", "split_condition": 0.5, "yes": 15, "no": 16, "missing": 15 , "children": [
          { "nodeid": 15, "depth": 4, "split": "f18", "split_condition": 0.5, "yes": 29, "no": 30, "missing": 29 , "children": [
            { "nodeid": 29, "leaf": -0.28928563 }, 
            { "nodeid": 30, "leaf": -0.113451242 }
          ]}, 
          { "nodeid": 16, "depth": 4, "split": "f8", "split_condition": 0.5, "yes": 31, "no": 32, "missing": 31 , "children": [
            { "nodeid": 31, "leaf": 0.083541818 }, 
            { "nodeid": 32, "leaf": -0.277966827 }
          ]}
        ]}
      ]}, 
      { "nodeid": 4, "depth": 2, "split": "f12", "split_condition": 0.5, "yes": 9, "no": 10, "missing": 9 , "children": [
        { "nodeid": 9, "depth": 3, "split": "f18", "split_condition": 0.5, "yes": 17, "no": 18, "missing": 17 , "children": [
          { "nodeid": 17, "depth": 4, "split": "f17", "split_condition": 0.5, "yes": 33, "no": 34, "missing": 33 , "children": [
            { "nodeid": 33, "leaf": -0.256066531 }, 
            { "nodeid": 34, "leaf": 0.0427913889 }
          ]}, 
          { "nodeid": 18, "depth": 4, "split": "f5", "split_condition": 3.35500002, "yes": 35, "no": 36, "missing": 35 , "children": [
            { "nodeid": 35, "leaf": -0.167229176 }, 
            { "nodeid": 36, "leaf": 0.177771419 }
          ]}
        ]}, 
        { "nodeid": 10, "depth": 3, "split": "f10", "split_condition": 0.5, "yes": 19, "no": 20, "missing": 19 , "children": [
          { "nodeid": 19, "depth": 4, "split": "f9", "split_condition": 0.5, "yes": 37, "no": 38, "missing": 37 , "children": [
            { "nodeid": 37, "leaf": 0.437427133 }, 
            { "nodeid": 38, "leaf": -0.0858303457 }
          ]}, 
          { "nodeid": 20, "leaf": -0.191638365 }
        ]}
      ]}
    ]}, 
    { "nodeid": 2, "depth": 1, "split": "f4", "split_condition": 6.26500034, "yes": 5, "no": 6, "missing": 5 , "children": [
      { "nodeid": 5, "depth": 2, "split": "f11", "split_condition": 0.5, "yes": 11, "no": 12, "missing": 11 , "children": [
        { "nodeid": 11, "depth": 3, "split": "f10", "split_condition": 0.5, "yes": 21, "no": 22, "missing": 21 , "children": [
          { "nodeid": 21, "depth": 4, "split": "f8", "split_condition": 0.5, "yes": 39, "no": 40, "missing": 39 , "children": [
            { "nodeid": 39, "leaf": 0.0827400163 }, 
            { "nodeid": 40, "leaf": -0.0875053182 }
          ]}, 
          { "nodeid": 22, "depth": 4, "split": "f3", "split_condition": 6.0250001, "yes": 41, "no": 42, "missing": 41 , "children": [
            { "nodeid": 41, "leaf": -0.266028643 }, 
            { "nodeid": 42, "leaf": -0.0322407298 }
          ]}
        ]}, 
        { "nodeid": 12, "depth": 3, "split": "f5", "split_condition": 3.75500011, "yes": 23, "no": 24, "missing": 23 , "children": [
          { "nodeid": 23, "leaf": -0.396114796 }, 
          { "nodeid": 24, "depth": 4, "split": "f1", "split_condition": 62.75, "yes": 43, "no": 44, "missing": 43 , "children": [
            { "nodeid": 43, "leaf": 0.169770554 }, 
            { "nodeid": 44, "leaf": -0.213276893 }
          ]}
        ]}
      ]}, 
      { "nodeid": 6, "depth": 2, "split": "f5", "split_condition": 3.94500017, "yes": 13, "no": 14, "missing": 13 , "children": [
        { "nodeid": 13, "depth": 3, "split": "f16", "split_condition": 0.5, "yes": 25, "no": 26, "missing": 25 , "children": [
          { "nodeid": 25, "depth": 4, "split": "f13", "split_condition": 0.5, "yes": 45, "no": 46, "missing": 45 , "children": [
            { "nodeid": 45, "leaf": -5.81187342e-05 }, 
            { "nodeid": 46, "leaf": 0.239539847 }
          ]}, 
          { "nodeid": 26, "depth": 4, "split": "f4", "split_condition": 6.28499985, "yes": 47, "no": 48, "missing": 47 , "children": [
            { "nodeid": 47, "leaf": 0.0353963077 }, 
            { "nodeid": 48, "leaf": 0.293141872 }
          ]}
        ]}, 
        { "nodeid": 14, "depth": 3, "split": "f1", "split_condition": 64.3500061, "yes": 27, "no": 28, "missing": 27 , "children": [
          { "nodeid": 27, "depth": 4, "split": "f4", "split_condition": 6.49499989, "yes": 49, "no": 50, "missing": 49 , "children": [
            { "nodeid": 49, "leaf": 0.231383309 }, 
            { "nodeid": 50, "leaf": 0.295722753 }
          ]}, 
          { "nodeid": 28, "depth": 4, "split": "f0", "split_condition": 1.30999994, "yes": 51, "no": 52, "missing": 51 , "children": [
            { "nodeid": 51, "leaf": -0.0429133177 }, 
            { "nodeid": 52, "leaf": 0.257974207 }
          ]}
        ]}
      ]}
    ]}
  ]},
  { "nodeid": 0, "depth": 0, "split": "f4", "split_condition": 5.7249999, "yes": 1, "no": 2, "missing": 1 , "children": [
    { "nodeid": 1, "depth": 1, "split": "f0", "split_condition": 0.584999979, "yes": 3, "no": 4, "missing": 3 , "children": [
      { "nodeid": 3, "depth": 2, "split": "f0", "split_condition": 0.504999995, "yes": 7, "no": 8, "missing": 7 , "children": [
        { "nodeid": 7, "leaf": -0.304140478 }, 
        { "nodeid": 8, "depth": 3, "split": "f17", "split_condition": 0.5, "yes": 15, "no": 16, "missing": 15 , "children": [
          { "nodeid": 15, "depth": 4, "split": "f12", "split_condition": 0.5, "yes": 29, "no": 30, "missing": 29 , "children": [
            { "nodeid": 29, "leaf": -0.277393758 }, 
            { "nodeid": 30, "leaf": 0.0142457774 }
          ]}, 
          { "nodeid": 16, "depth": 4, "split": "f9", "split_condition": 0.5, "yes": 31, "no": 32, "missing": 31 , "children": [
            { "nodeid": 31, "leaf": 0.0418117046 }, 
            { "nodeid": 32, "leaf": -0.276340932 }
          ]}
        ]}
      ]}, 
      { "nodeid": 4, "depth": 2, "split": "f13", "split_condition": 0.5, "yes": 9, "no": 10, "missing": 9 , "children": [
        { "nodeid": 9, "depth": 3, "split": "f14", "split_condition": 0.5, "yes": 17, "no": 18, "missing": 17 , "children": [
          { "nodeid": 17, "depth": 4, "split": "f16", "split_condition": 0.5, "yes": 33, "no": 34, "missing": 33 , "children": [
            { "nodeid": 33, "leaf": 0.0486464016 }, 
            { "nodeid": 34, "leaf": -0.189618289 }
          ]}, 
          { "nodeid": 18, "depth": 4, "split": "f4", "split_condition": 5.32499981, "yes": 35, "no": 36, "missing": 35 , "children": [
            { "nodeid": 35, "leaf": 0.238181517 }, 
            { "nodeid": 36, "leaf": -0.313091666 }
          ]}
        ]}, 
        { "nodeid": 10, "depth": 3, "split": "f3", "split_condition": 5.76500034, "yes": 19, "no": 20, "missing": 19 , "children": [
          { "nodeid": 19, "leaf": -0.286034256 }, 
          { "nodeid": 20, "leaf": -0.000790146354 }
        ]}
      ]}
    ]}, 
    { "nodeid": 2, "depth": 1, "split": "f0", "split_condition": 0.995000005, "yes": 5, "no": 6, "missing": 5 , "children": [
      { "nodeid": 5, "depth": 2, "split": "f17", "split_condition": 0.5, "yes": 11, "no": 12, "missing": 11 , "children": [
        { "nodeid": 11, "depth": 3, "split": "f15", "split_condition": 0.5, "yes": 21, "no": 22, "missing": 21 , "children": [
          { "nodeid": 21, "depth": 4, "split": "f18", "split_condition": 0.5, "yes": 37, "no": 38, "missing": 37 , "children": [
            { "nodeid": 37, "leaf": -0.0427648574 }, 
            { "nodeid": 38, "leaf": 0.195275322 }
          ]}, 
          { "nodeid": 22, "depth": 4, "split": "f0", "split_condition": 0.704999983, "yes": 39, "no": 40, "missing": 39 , "children": [
            { "nodeid": 39, "leaf": -0.0737605095 }, 
            { "nodeid": 40, "leaf": 0.159414113 }
          ]}
        ]}, 
        { "nodeid": 12, "depth": 3, "split": "f4", "split_condition": 5.76500034, "yes": 23, "no": 24, "missing": 23 , "children": [
          { "nodeid": 23, "depth": 4, "split": "f9", "split_condition": 0.5, "yes": 41, "no": 42, "missing": 41 , "children": [
            { "nodeid": 41, "leaf": 0.193392247 }, 
            { "nodeid": 42, "leaf": -0.123855673 }
          ]}, 
          { "nodeid": 24, "depth": 4, "split": "f0", "split_condition": 0.704999983, "yes": 43, "no": 44, "missing": 43 , "children": [
            { "nodeid": 43, "leaf": 0.0942594707 }, 
            { "nodeid": 44, "leaf": 0.372936428 }
          ]}
        ]}
      ]}, 
      { "nodeid": 6, "depth": 2, "split": "f1", "split_condition": 64.0500031, "yes": 13, "no": 14, "missing": 13 , "children": [
        { "nodeid": 13, "depth": 3, "split": "f5", "split_condition": 4.03499985, "yes": 25, "no": 26, "missing": 25 , "children": [
          { "nodeid": 25, "depth": 4, "split": "f10", "split_condition": 0.5, "yes": 45, "no": 46, "missing": 45 , "children": [
            { "nodeid": 45, "leaf": 0.221855223 }, 
            { "nodeid": 46, "leaf": -0.183885843 }
          ]}, 
          { "nodeid": 26, "leaf": 0.290847063 }
        ]}, 
        { "nodeid": 14, "depth": 3, "split": "f13", "split_condition": 0.5, "yes": 27, "no": 28, "missing": 27 , "children": [
          { "nodeid": 27, "depth": 4, "split": "f16", "split_condition": 0.5, "yes": 47, "no": 48, "missing": 47 , "children": [
            { "nodeid": 47, "leaf": -0.0743208155 }, 
            { "nodeid": 48, "leaf": 0.298215032 }
          ]}, 
          { "nodeid": 28, "depth": 4, "split": "f5", "split_condition": 4.07499981, "yes": 49, "no": 50, "missing": 49 , "children": [
            { "nodeid": 49, "leaf": 0.0964106396 }, 
            { "nodeid": 50, "leaf": 0.288100392 }
          ]}
        ]}
      ]}
    ]}
  ]},
  { "nodeid": 0, "depth": 0, "split": "f3", "split_condition": 5.60500002, "yes": 1, "no": 2, "missing": 1 , "children": [
    { "nodeid": 1, "depth": 1, "split": "f0", "split_condition": 0.504999995, "yes": 3, "no": 4, "missing": 3 , "children": [
      { "nodeid": 3, "leaf": -0.301361442 }, 
      { "nodeid": 4, "depth": 2, "split": "f4", "split_condition": 4.96500015, "yes": 7, "no": 8, "missing": 7 , "children": [
        { "nodeid": 7, "leaf": 0.49973169 }, 
        { "nodeid": 8, "depth": 3, "split": "f17", "split_condition": 0.5, "yes": 13, "no": 14, "missing": 13 , "children": [
          { "nodeid": 13, "depth": 4, "split": "f12", "split_condition": 0.5, "yes": 23, "no": 24, "missing": 23 , "children": [
            { "nodeid": 23, "leaf": -0.234116808 }, 
            { "nodeid": 24, "leaf": 0.0410919935 }
          ]}, 
          { "nodeid": 14, "depth": 4, "split": "f10", "split_condition": 0.5, "yes": 25, "no": 26, "missing": 25 , "children": [
            { "nodeid": 25, "leaf": 0.0381818824 }, 
            { "nodeid": 26, "leaf": -0.338108838 }
          ]}
        ]}
      ]}
    ]}, 
    { "nodeid": 2, "depth": 1, "split": "f4", "split_condition": 6.07499981, "yes": 5, "no": 6, "missing": 5 , "children": [
      { "nodeid": 5, "depth": 2, "split": "f9", "split_condition": 0.5, "yes": 9, "no": 10, "missing": 9 , "children": [
        { "nodeid": 9, "depth": 3, "split": "f11", "split_condition": 0.5, "yes": 15, "no": 16, "missing": 15 , "children": [
          { "nodeid": 15, "depth": 4, "split": "f10", "split_condition": 0.5, "yes": 27, "no": 28, "missing": 27 , "children": [
            { "nodeid": 27, "leaf": 0.040659897 }, 
            { "nodeid": 28, "leaf": -0.216576919 }
          ]}, 
          { "nodeid": 16, "depth": 4, "split": "f0", "split_condition": 0.904999971, "yes": 29, "no": 30, "missing": 29 , "children": [
            { "nodeid": 29, "leaf": -0.357241571 }, 
            { "nodeid": 30, "leaf": 0.0838584825 }
          ]}
        ]}, 
        { "nodeid": 10, "depth": 3, "split": "f12", "split_condition": 0.5, "yes": 17, "no": 18, "missing": 17 , "children": [
          { "nodeid": 17, "depth": 4, "split": "f2", "split_condition": 58.25, "yes": 31, "no": 32, "missing": 31 , "children": [
            { "nodeid": 31, "leaf": -0.137737051 }, 
            { "nodeid": 32, "leaf": -0.366311848 }
          ]}, 
          { "nodeid": 18, "depth": 4, "split": "f3", "split_condition": 5.70499992, "yes": 33, "no": 34, "missing": 33 , "children": [
            { "nodeid": 33, "leaf": 0.0770825595 }, 
            { "nodeid": 34, "leaf": 0.316021502 }
          ]}
        ]}
      ]}, 
      { "nodeid": 6, "depth": 2, "split": "f4", "split_condition": 6.50500011, "yes": 11, "no": 12, "missing": 11 , "children": [
        { "nodeid": 11, "depth": 3, "split": "f16", "split_condition": 0.5, "yes": 19, "no": 20, "missing": 19 , "children": [
          { "nodeid": 19, "depth": 4, "split": "f13", "split_condition": 0.5, "yes": 35, "no": 36, "missing": 35 , "children": [
            { "nodeid": 35, "leaf": -0.0117003862 }, 
            { "nodeid": 36, "leaf": 0.205779716 }
          ]}, 
          { "nodeid": 20, "depth": 4, "split": "f4", "split_condition": 6.09500027, "yes": 37, "no": 38, "missing": 37 , "children": [
            { "nodeid": 37, "leaf": 0.107647985 }, 
            { "nodeid": 38, "leaf": 0.297162503 }
          ]}
        ]}, 
        { "nodeid": 12, "depth": 3, "split": "f1", "split_condition": 64.9499969, "yes": 21, "no": 22, "missing": 21 , "children": [
          { "nodeid": 21, "depth": 4, "split": "f1", "split_condition": 56.1500015, "yes": 39, "no": 40, "missing": 39 , "children": [
            { "nodeid": 39, "leaf": -0.102613159 }, 
            { "nodeid": 40, "leaf": 0.273161083 }
          ]}, 
          { "nodeid": 22, "depth": 4, "split": "f3", "split_condition": 6.69999981, "yes": 41, "no": 42, "missing": 41 , "children": [
            { "nodeid": 41, "leaf": -0.679223895 }, 
            { "nodeid": 42, "leaf": 0.225883245 }
          ]}
        ]}
      ]}
    ]}
  ]},
  { "nodeid": 0, "depth": 0, "split": "f0", "split_condition": 0.595000029, "yes": 1, "no": 2, "missing": 1 , "children": [
    { "nodeid": 1, "depth": 1, "split": "f5", "split_condition": 3.125, "yes": 3, "no": 4, "missing": 3 , "children": [
      { "nodeid": 3, "leaf": -0.302107334 }, 
      { "nodeid": 4, "depth": 2, "split": "f12", "split_condition": 0.5, "yes": 7, "no": 8, "missing": 7 , "children": [
        { "nodeid": 7, "depth": 3, "split": "f17", "split_condition": 0.5, "yes": 13, "no": 14, "missing": 13 , "children": [
          { "nodeid": 13, "depth": 4, "split": "f18", "split_condition": 0.5, "yes": 25, "no": 26, "missing": 25 , "children": [
            { "nodeid": 25, "leaf": -0.297233999 }, 
            { "nodeid": 26, "leaf": -0.0618532971 }
          ]}, 
          { "nodeid": 14, "depth": 4, "split": "f8", "split_condition": 0.5, "yes": 27, "no": 28, "missing": 27 , "children": [
            { "nodeid": 27, "leaf": 0.0543368533 }, 
            { "nodeid": 28, "leaf": -0.286712468 }
          ]}
        ]}, 
        { "nodeid": 8, "depth": 3, "split": "f8", "split_condition": 0.5, "yes": 15, "no": 16, "missing": 15 , "children": [
          { "nodeid": 15, "depth": 4, "split": "f9", "split_condition": 0.5, "yes": 29, "no": 30, "missing": 29 , "children": [
            { "nodeid": 29, "leaf": 0.33006832 }, 
            { "nodeid": 30, "leaf": -0.228517264 }
          ]}, 
          { "nodeid": 16, "leaf": -0.243758097 }
        ]}
      ]}
    ]}, 
    { "nodeid": 2, "depth": 1, "split": "f5", "split_condition": 3.81500006, "yes": 5, "no": 6, "missing": 5 , "children": [
      { "nodeid": 5, "depth": 2, "split": "f14", "split_condition": 0.5, "yes": 9, "no": 10, "missing": 9 , "children": [
        { "nodeid": 9, "depth": 3, "split": "f13", "split_condition": 0.5, "yes": 17, "no": 18, "missing": 17 , "children": [
          { "nodeid": 17, "depth": 4, "split": "f11", "split_condition": 0.5, "yes": 31, "no": 32, "missing": 31 , "children": [
            { "nodeid": 31, "leaf": 0.0635880008 }, 
            { "nodeid": 32, "leaf": -0.308977962 }
          ]}, 
          { "nodeid": 18, "depth": 4, "split": "f1", "split_condition": 62.4500008, "yes": 33, "no": 34, "missing": 33 , "children": [
            { "nodeid": 33, "leaf": -0.0698594302 }, 
            { "nodeid": 34, "leaf": -0.268700778 }
          ]}
        ]}, 
        { "nodeid": 10, "depth": 3, "split": "f0", "split_condition": 0.784999967, "yes": 19, "no": 20, "missing": 19 , "children": [
          { "nodeid": 19, "depth": 4, "split": "f4", "split_condition": 5.44499969, "yes": 35, "no": 36, "missing": 35 , "children": [
            { "nodeid": 35, "leaf": -0.0103062727 }, 
            { "nodeid": 36, "leaf": -0.286364079 }
          ]}, 
          { "nodeid": 20, "depth": 4, "split": "f0", "split_condition": 0.99000001, "yes": 37, "no": 38, "missing": 37 , "children": [
            { "nodeid": 37, "leaf": -0.0870716497 }, 
            { "nodeid": 38, "leaf": 0.292987525 }
          ]}
        ]}
      ]}, 
      { "nodeid": 6, "depth": 2, "split": "f1", "split_condition": 64.1499939, "yes": 11, "no": 12, "missing": 11 , "children": [
        { "nodeid": 11, "depth": 3, "split": "f5", "split_condition": 4.03499985, "yes": 21, "no": 22, "missing": 21 , "children": [
          { "nodeid": 21, "depth": 4, "split": "f10", "split_condition": 0.5, "yes": 39, "no": 40, "missing": 39 , "children": [
            { "nodeid": 39, "leaf": 0.187431946 }, 
            { "nodeid": 40, "leaf": -0.0975495949 }
          ]}, 
          { "nodeid": 22, "depth": 4, "split": "f4", "split_condition": 6.34500027, "yes": 41, "no": 42, "missing": 41 , "children": [
            { "nodeid": 41, "leaf": 0.0207783468 }, 
            { "nodeid": 42, "leaf": 0.277526736 }
          ]}
        ]}, 
        { "nodeid": 12, "depth": 3, "split": "f16", "split_condition": 0.5, "yes": 23, "no": 24, "missing": 23 , "children": [
          { "nodeid": 23, "depth": 4, "split": "f0", "split_condition": 1.30499995, "yes": 43, "no": 44, "missing": 43 , "children": [
            { "nodeid": 43, "leaf": -0.08425612 }, 
            { "nodeid": 44, "leaf": 0.241137505 }
          ]}, 
          { "nodeid": 24, "depth": 4, "split": "f1", "split_condition": 64.3500061, "yes": 45, "no": 46, "missing": 45 , "children": [
            { "nodeid": 45, "leaf": -0.0376179069 }, 
            { "nodeid": 46, "leaf": 0.28479141 }
          ]}
        ]}
      ]}
    ]}
  ]},
  { "nodeid": 0, "depth": 0, "split": "f5", "split_condition": 3.49499989, "yes": 1, "no": 2, "missing": 1 , "children": [
    { "nodeid": 1, "depth": 1, "split": "f0", "split_condition": 0.504999995, "yes": 3, "no": 4, "missing": 3 , "children": [
      { "nodeid": 3, "depth": 2, "split": "f5", "split_condition": 3.16499996, "yes": 7, "no": 8, "missing": 7 , "children": [
        { "nodeid": 7, "leaf": -0.300462425 }, 
        { "nodeid": 8, "depth": 3, "split": "f3", "split_condition": 5.01500034, "yes": 15, "no": 16, "missing": 15 , "children": [
          { "nodeid": 15, "leaf": 0.133715749 }, 
          { "nodeid": 16, "leaf": -0.230666518 }
        ]}
      ]}, 
      { "nodeid": 4, "depth": 2, "split": "f8", "split_condition": 0.5, "yes": 9, "no": 10, "missing": 9 , "children": [
        { "nodeid": 9, "depth": 3, "split": "f18", "split_condition": 0.5, "yes": 17, "no": 18, "missing": 17 , "children": [
          { "nodeid": 17, "depth": 4, "split": "f17", "split_condition": 0.5, "yes": 29, "no": 30, "missing": 29 , "children": [
            { "nodeid": 29, "leaf": -0.160727978 }, 
            { "nodeid": 30, "leaf": 0.0530788749 }
          ]}, 
          { "nodeid": 18, "depth": 4, "split": "f9", "split_condition": 0.5, "yes": 31, "no": 32, "missing": 31 , "children": [
            { "nodeid": 31, "leaf": 0.242514461 }, 
            { "nodeid": 32, "leaf": -0.26555565 }
          ]}
        ]}, 
        { "nodeid": 10, "depth": 3, "split": "f12", "split_condition": 0.5, "yes": 19, "no": 20, "missing": 19 , "children": [
          { "nodeid": 19, "depth": 4, "split": "f5", "split_condition": 3.44500017, "yes": 33, "no": 34, "missing": 33 , "children": [
            { "nodeid": 33, "leaf": -0.311525583 }, 
            { "nodeid": 34, "leaf": -0.17852509 }
          ]}, 
          { "nodeid": 20, "depth": 4, "split": "f4", "split_condition": 5.59500027, "yes": 35, "no": 36, "missing": 35 , "children": [
            { "nodeid": 35, "leaf": -0.242270783 }, 
            { "nodeid": 36, "leaf": 0.352082253 }
          ]}
        ]}
      ]}
    ]}, 
    { "nodeid": 2, "depth": 1, "split": "f4", "split_condition": 6.50500011, "yes": 5, "no": 6, "missing": 5 , "children": [
      { "nodeid": 5, "depth": 2, "split": "f6", "split_condition": 0.5, "yes": 11, "no": 12, "missing": 11 , "children": [
        { "nodeid": 11, "depth": 3, "split": "f11", "split_condition": 0.5, "yes": 21, "no": 22, "missing": 21 , "children": [
          { "nodeid": 21, "depth": 4, "split": "f0", "split_condition": 0.894999981, "yes": 37, "no": 38, "missing": 37 , "children": [
            { "nodeid": 37, "leaf": -0.0319783203 }, 
            { "nodeid": 38, "leaf": 0.0812112689 }
          ]}, 
          { "nodeid": 22, "depth": 4, "split": "f3", "split_condition": 6.375, "yes": 39, "no": 40, "missing": 39 , "children": [
            { "nodeid": 39, "leaf": -0.193782061 }, 
            { "nodeid": 40, "leaf": -0.498753756 }
          ]}
        ]}, 
        { "nodeid": 12, "depth": 3, "split": "f2", "split_condition": 62.5, "yes": 23, "no": 24, "missing": 23 , "children": [
          { "nodeid": 23, "depth": 4, "split": "f4", "split_condition": 5.83500004, "yes": 41, "no": 42, "missing": 41 , "children": [
            { "nodeid": 41, "leaf": 0.0577068962 }, 
            { "nodeid": 42, "leaf": 0.222809449 }
          ]}, 
          { "nodeid": 24, "depth": 4, "split": "f5", "split_condition": 3.7249999, "yes": 43, "no": 44, "missing": 43 , "children": [
            { "nodeid": 43, "leaf": -0.632781863 }, 
            { "nodeid": 44, "leaf": -0.00968542229 }
          ]}
        ]}
      ]}, 
      { "nodeid": 6, "depth": 2, "split": "f3", "split_condition": 6.9749999, "yes": 13, "no": 14, "missing": 13 , "children": [
        { "nodeid": 13, "depth": 3, "split": "f1", "split_condition": 64.3500061, "yes": 25, "no": 26, "missing": 25 , "children": [
          { "nodeid": 25, "depth": 4, "split": "f11", "split_condition": 0.5, "yes": 45, "no": 46, "missing": 45 , "children": [
            { "nodeid": 45, "leaf": 0.226658061 }, 
            { "nodeid": 46, "leaf": -0.145361066 }
          ]}, 
          { "nodeid": 26, "depth": 4, "split": "f14", "split_condition": 0.5, "yes": 47, "no": 48, "missing": 47 , "children": [
            { "nodeid": 47, "leaf": -0.352291822 }, 
            { "nodeid": 48, "leaf": 0.19376567 }
          ]}
        ]}, 
        { "nodeid": 14, "depth": 3, "split": "f1", "split_condition": 65.5500031, "yes": 27, "no": 28, "missing": 27 , "children": [
          { "nodeid": 27, "leaf": 0.298628062 }, 
          { "nodeid": 28, "leaf": 0.100845173 }
        ]}
      ]}
    ]}
  ]},
  { "nodeid": 0, "depth": 0, "split": "f0", "split_condition": 0.584999979, "yes": 1, "no": 2, "missing": 1 , "children": [
    { "nodeid": 1, "depth": 1, "split": "f5", "split_condition": 3.125, "yes": 3, "no": 4, "missing": 3 , "children": [
      { "nodeid": 3, "leaf": -0.298984915 }, 
      { "nodeid": 4, "depth": 2, "split": "f12", "split_condition": 0.5, "yes": 7, "no": 8, "missing": 7 , "children": [
        { "nodeid": 7, "depth": 3, "split": "f17", "split_condition": 0.5, "yes": 13, "no": 14, "missing": 13 , "children": [
          { "nodeid": 13, "depth": 4, "split": "f18", "split_condition": 0.5, "yes": 25, "no": 26, "missing": 25 , "children": [
            { "nodeid": 25, "leaf": -0.28996861 }, 
            { "nodeid": 26, "leaf": -0.0563291535 }
          ]}, 
          { "nodeid": 14, "depth": 4, "split": "f9", "split_condition": 0.5, "yes": 27, "no": 28, "missing": 27 , "children": [
            { "nodeid": 27, "leaf": 0.0526897907 }, 
            { "nodeid": 28, "leaf": -0.268238127 }
          ]}
        ]}, 
        { "nodeid": 8, "depth": 3, "split": "f4", "split_condition": 5.31500006, "yes": 15, "no": 16, "missing": 15 , "children": [
          { "nodeid": 15, "depth": 4, "split": "f7", "split_condition": 0.5, "yes": 29, "no": 30, "missing": 29 , "children": [
            { "nodeid": 29, "leaf": 0.414203107 }, 
            { "nodeid": 30, "leaf": -0.18019186 }
          ]}, 
          { "nodeid": 16, "depth": 4, "split": "f3", "split_condition": 5.32499981, "yes": 31, "no": 32, "missing": 31 , "children": [
            { "nodeid": 31, "leaf": -0.209984809 }, 
            { "nodeid": 32, "leaf": -0.039386373 }
          ]}
        ]}
      ]}
    ]}, 
    { "nodeid": 2, "depth": 1, "split": "f4", "split_condition": 6.50500011, "yes": 5, "no": 6, "missing": 5 , "children": [
      { "nodeid": 5, "depth": 2, "split": "f10", "split_condition": 0.5, "yes": 9, "no": 10, "missing": 9 , "children": [
        { "nodeid": 9, "depth": 3, "split": "f9", "split_condition": 0.5, "yes": 17, "no": 18, "missing": 17 , "children": [
          { "nodeid": 17, "depth": 4, "split": "f8", "split_condition": 0.5, "yes": 33, "no": 34, "missing": 33 , "children": [
            { "nodeid": 33, "leaf": 0.0824073553 }, 
            { "nodeid": 34, "leaf": -0.0814899653 }
          ]}, 
          { "nodeid": 18, "depth": 4, "split": "f0", "split_condition": 0.894999981, "yes": 35, "no": 36, "missing": 35 , "children": [
            { "nodeid": 35, "leaf": -0.161593974 }, 
            { "nodeid": 36, "leaf": 0.0159503538 }
          ]}
        ]}, 
        { "nodeid": 10, "depth": 3, "split": "f3", "split_condition": 6.43499994, "yes": 19, "no": 20, "missing": 19 , "children": [
          { "nodeid": 19, "depth": 4, "split": "f0", "split_condition": 0.774999976, "yes": 37, "no": 38, "missing": 37 , "children": [
            { "nodeid": 37, "leaf": -0.272756189 }, 
            { "nodeid": 38, "leaf": -0.0385507345 }
          ]}, 
          { "nodeid": 20, "depth": 4, "split": "f13", "split_condition": 0.5, "yes": 39, "no": 40, "missing": 39 , "children": [
            { "nodeid": 39, "leaf": -0.777576029 }, 
            { "nodeid": 40, "leaf": 0.0555021614 }
          ]}
        ]}
      ]}, 
      { "nodeid": 6, "depth": 2, "split": "f4", "split_condition": 6.92500019, "yes": 11, "no": 12, "missing": 11 , "children": [
        { "nodeid": 11, "depth": 3, "split": "f2", "split_condition": 60.9000015, "yes": 21, "no": 22, "missing": 21 , "children": [
          { "nodeid": 21, "depth": 4, "split": "f3", "split_condition": 6.91499996, "yes": 41, "no": 42, "missing": 41 , "children": [
            { "nodeid": 41, "leaf": 0.204312488 }, 
            { "nodeid": 42, "leaf": -0.152629018 }
          ]}, 
          { "nodeid": 22, "depth": 4, "split": "f3", "split_condition": 6.60500002, "yes": 43, "no": 44, "missing": 43 , "children": [
            { "nodeid": 43, "leaf": 0.230261311 }, 
            { "nodeid": 44, "leaf": -0.311972916 }
          ]}
        ]}, 
        { "nodeid": 12, "depth": 3, "split": "f1", "split_condition": 65.5500031, "yes": 23, "no": 24, "missing": 23 , "children": [
          { "nodeid": 23, "leaf": 0.29733178 }, 
          { "nodeid": 24, "leaf": 0.0837453306 }
        ]}
      ]}
    ]}
  ]},
  { "nodeid": 0, "depth": 0, "split": "f3", "split_condition": 5.32499981, "yes": 1, "no": 2, "missing": 1 , "children": [
    { "nodeid": 1, "depth": 1, "split": "f0", "split_condition": 0.495000005, "yes": 3, "no": 4, "missing": 3 , "children": [
      { "nodeid": 3, "leaf": -0.297155201 }, 
      { "nodeid": 4, "depth": 2, "split": "f3", "split_condition": 4.99499989, "yes": 7, "no": 8, "missing": 7 , "children": [
        { "nodeid": 7, "depth": 3, "split": "f2", "split_condition": 58.5, "yes": 13, "no": 14, "missing": 13 , "children": [
          { "nodeid": 13, "leaf": 0.0537060648 }, 
          { "nodeid": 14, "leaf": 0.503978789 }
        ]}, 
        { "nodeid": 8, "depth": 3, "split": "f8", "split_condition": 0.5, "yes": 15, "no": 16, "missing": 15 , "children": [
          { "nodeid": 15, "depth": 4, "split": "f7", "split_condition": 0.5, "yes": 25, "no": 26, "missing": 25 , "children": [
            { "nodeid": 25, "leaf": -0.069467999 }, 
            { "nodeid": 26, "leaf": -0.257204235 }
          ]}, 
          { "nodeid": 16, "leaf": -0.279760957 }
        ]}
      ]}
    ]}, 
    { "nodeid": 2, "depth": 1, "split": "f4", "split_condition": 6.67500019, "yes": 5, "no": 6, "missing": 5 , "children": [
      { "nodeid": 5, "depth": 2, "split": "f15", "split_condition": 0.5, "yes": 9, "no": 10, "missing": 9 , "children": [
        { "nodeid": 9, "depth": 3, "split": "f18", "split_condition": 0.5, "yes": 17, "no": 18, "missing": 17 , "children": [
          { "nodeid": 17, "depth": 4, "split": "f17", "split_condition": 0.5, "yes": 27, "no": 28, "missing": 27 , "children": [
            { "nodeid": 27, "leaf": -0.0531682074 }, 
            { "nodeid": 28, "leaf": 0.165426344 }
          ]}, 
          { "nodeid": 18, "depth": 4, "split": "f0", "split_condition": 0.764999986, "yes": 29, "no": 30, "missing": 29 , "children": [
            { "nodeid": 29, "leaf": 0.104939856 }, 
            { "nodeid": 30, "leaf": 0.310258627 }
          ]}
        ]}, 
        { "nodeid": 10, "depth": 3, "split": "f5", "split_condition": 3.66499996, "yes": 19, "no": 20, "missing": 19 , "children": [
          { "nodeid": 19, "depth": 4, "split": "f9", "split_condition": 0.5, "yes": 31, "no": 32, "missing": 31 , "children": [
            { "nodeid": 31, "leaf": 0.0773658007 }, 
            { "nodeid": 32, "leaf": -0.171763659 }
          ]}, 
          { "nodeid": 20, "depth": 4, "split": "f10", "split_condition": 0.5, "yes": 33, "no": 34, "missing": 33 , "children": [
            { "nodeid": 33, "leaf": 0.303264767 }, 
            { "nodeid": 34, "leaf": 0.120353371 }
          ]}
        ]}
      ]}, 
      { "nodeid": 6, "depth": 2, "split": "f4", "split_condition": 6.92500019, "yes": 11, "no": 12, "missing": 11 , "children": [
        { "nodeid": 11, "depth": 3, "split": "f11", "split_condition": 0.5, "yes": 21, "no": 22, "missing": 21 , "children": [
          { "nodeid": 21, "depth": 4, "split": "f3", "split_condition": 6.92500019, "yes": 35, "no": 36, "missing": 35 , "children": [
            { "nodeid": 35, "leaf": 0.236534029 }, 
            { "nodeid": 36, "leaf": -0.0604401082 }
          ]}, 
          { "nodeid": 22, "depth": 4, "split": "f1", "split_condition": 61.9500008, "yes": 37, "no": 38, "missing": 37 , "children": [
            { "nodeid": 37, "leaf": -0.384934276 }, 
            { "nodeid": 38, "leaf": 0.169702172 }
          ]}
        ]}, 
        { "nodeid": 12, "depth": 3, "split": "f2", "split_condition": 54.0499992, "yes": 23, "no": 24, "missing": 23 , "children": [
          { "nodeid": 23, "leaf": 0.0617197938 }, 
          { "nodeid": 24, "leaf": 0.294660211 }
        ]}
      ]}
    ]}
  ]},
  { "nodeid": 0, "depth": 0, "split": "f4", "split_condition": 5.81500006, "yes": 1, "no": 2, "missing": 1 , "children": [
    { "nodeid": 1, "depth": 1, "split": "f0", "split_condition": 0.504999995, "yes": 3, "no": 4, "missing": 3 , "children": [
      { "nodeid": 3, "depth": 2, "split": "f5", "split_condition": 3.16499996, "yes": 7, "no": 8, "missing": 7 , "children": [
        { "nodeid": 7, "leaf": -0.295619637 }, 
        { "nodeid": 8, "depth": 3, "split": "f3", "split_condition": 5.01500034, "yes": 15, "no": 16, "missing": 15 , "children": [
          { "nodeid": 15, "leaf": 0.117443234 }, 
          { "nodeid": 16, "leaf": -0.193459183 }
        ]}
      ]}, 
      { "nodeid": 4, "depth": 2, "split": "f10", "split_condition": 0.5, "yes": 9, "no": 10, "missing": 9 , "children": [
        { "nodeid": 9, "depth": 3, "split": "f13", "split_condition": 0.5, "yes": 17, "no": 18, "missing": 17 , "children": [
          { "nodeid": 17, "depth": 4, "split": "f14", "split_condition": 0.5, "yes": 29, "no": 30, "missing": 29 , "children": [
            { "nodeid": 29, "leaf": 0.0115352562 }, 
            { "nodeid": 30, "leaf": -0.263963252 }
          ]}, 
          { "nodeid": 18, "depth": 4, "split": "f2", "split_condition": 56.2000008, "yes": 31, "no": 32, "missing": 31 , "children": [
            { "nodeid": 31, "leaf": -0.0965324566 }, 
            { "nodeid": 32, "leaf": -0.22871691 }
          ]}
        ]}, 
        { "nodeid": 10, "depth": 3, "split": "f4", "split_condition": 5.79500008, "yes": 19, "no": 20, "missing": 19 , "children": [
          { "nodeid": 19, "leaf": -0.31440863 }, 
          { "nodeid": 20, "leaf": 0.0302054565 }
        ]}
      ]}
    ]}, 
    { "nodeid": 2, "depth": 1, "split": "f16", "split_condition": 0.5, "yes": 5, "no": 6, "missing": 5 , "children": [
      { "nodeid": 5, "depth": 2, "split": "f15", "split_condition": 0.5, "yes": 11, "no": 12, "missing": 11 , "children": [
        { "nodeid": 11, "depth": 3, "split": "f13", "split_condition": 0.5, "yes": 21, "no": 22, "missing": 21 , "children": [
          { "nodeid": 21, "depth": 4, "split": "f14", "split_condition": 0.5, "yes": 33, "no": 34, "missing": 33 , "children": [
            { "nodeid": 33, "leaf": -0.261853606 }, 
            { "nodeid": 34, "leaf": 0.0251737516 }
          ]}, 
          { "nodeid": 22, "depth": 4, "split": "f0", "split_condition": 0.845000029, "yes": 35, "no": 36, "missing": 35 , "children": [
            { "nodeid": 35, "leaf": -0.0476667471 }, 
            { "nodeid": 36, "leaf": 0.190239951 }
          ]}
        ]}, 
        { "nodeid": 12, "depth": 3, "split": "f0", "split_condition": 0.88499999, "yes": 23, "no": 24, "missing": 23 , "children": [
          { "nodeid": 23, "depth": 4, "split": "f10", "split_condition": 0.5, "yes": 37, "no": 38, "missing": 37 , "children": [
            { "nodeid": 37, "leaf": 0.141694725 }, 
            { "nodeid": 38, "leaf": -0.133704454 }
          ]}, 
          { "nodeid": 24, "leaf": 0.29348132 }
        ]}
      ]}, 
      { "nodeid": 6, "depth": 2, "split": "f0", "split_condition": 0.834999979, "yes": 13, "no": 14, "missing": 13 , "children": [
        { "nodeid": 13, "depth": 3, "split": "f6", "split_condition": 0.5, "yes": 25, "no": 26, "missing": 25 , "children": [
          { "nodeid": 25, "depth": 4, "split": "f3", "split_condition": 5.875, "yes": 39, "no": 40, "missing": 39 , "children": [
            { "nodeid": 39, "leaf": 0.13980931 }, 
            { "nodeid": 40, "leaf": -0.0908508301 }
          ]}, 
          { "nodeid": 26, "depth": 4, "split": "f1", "split_condition": 59.25, "yes": 41, "no": 42, "missing": 41 , "children": [
            { "nodeid": 41, "leaf": -0.216534838 }, 
            { "nodeid": 42, "leaf": 0.316447109 }
          ]}
        ]}, 
        { "nodeid": 14, "depth": 3, "split": "f5", "split_condition": 3.73500013, "yes": 27, "no": 28, "missing": 27 , "children": [
          { "nodeid": 27, "depth": 4, "split": "f5", "split_condition": 3.68499994, "yes": 43, "no": 44, "missing": 43 , "children": [
            { "nodeid": 43, "leaf": 0.232427508 }, 
            { "nodeid": 44, "leaf": -0.031283237 }
          ]}, 
          { "nodeid": 28, "depth": 4, "split": "f1", "split_condition": 63.9500008, "yes": 45, "no": 46, "missing": 45 , "children": [
            { "nodeid": 45, "leaf": 0.301527113 }, 
            { "nodeid": 46, "leaf": 0.16369091 }
          ]}
        ]}
      ]}
    ]}
  ]},
  { "nodeid": 0, "depth": 0, "split": "f0", "split_condition": 0.704999983, "yes": 1, "no": 2, "missing": 1 , "children": [
    { "nodeid": 1, "depth": 1, "split": "f5", "split_condition": 3.125, "yes": 3, "no": 4, "missing": 3 , "children": [
      { "nodeid": 3, "leaf": -0.293511689 }, 
      { "nodeid": 4, "depth": 2, "split": "f12", "split_condition": 0.5, "yes": 7, "no": 8, "missing": 7 , "children": [
        { "nodeid": 7, "depth": 3, "split": "f18", "split_condition": 0.5, "yes": 13, "no": 14, "missing": 13 , "children": [
          { "nodeid": 13, "depth": 4, "split": "f17", "split_condition": 0.5, "yes": 23, "no": 24, "missing": 23 , "children": [
            { "nodeid": 23, "leaf": -0.153572083 }, 
            { "nodeid": 24, "leaf": 0.0270374324 }
          ]}, 
          { "nodeid": 14, "depth": 4, "split": "f8", "split_condition": 0.5, "yes": 25, "no": 26, "missing": 25 , "children": [
            { "nodeid": 25, "leaf": 0.136047125 }, 
            { "nodeid": 26, "leaf": -0.216496512 }
          ]}
        ]}, 
        { "nodeid": 8, "depth": 3, "split": "f9", "split_condition": 0.5, "yes": 15, "no": 16, "missing": 15 , "children": [
          { "nodeid": 15, "depth": 4, "split": "f10", "split_condition": 0.5, "yes": 27, "no": 28, "missing": 27 , "children": [
            { "nodeid": 27, "leaf": 0.310849875 }, 
            { "nodeid": 28, "leaf": -0.201598361 }
          ]}, 
          { "nodeid": 16, "leaf": -0.205710128 }
        ]}
      ]}
    ]}, 
    { "nodeid": 2, "depth": 1, "split": "f3", "split_condition": 6.93499994, "yes": 5, "no": 6, "missing": 5 , "children": [
      { "nodeid": 5, "depth": 2, "split": "f11", "split_condition": 0.5, "yes": 9, "no": 10, "missing": 9 , "children": [
        { "nodeid": 9, "depth": 3, "split": "f18", "split_condition": 0.5, "yes": 17, "no": 18, "missing": 17 , "children": [
          { "nodeid": 17, "depth": 4, "split": "f12", "split_condition": 0.5, "yes": 29, "no": 30, "missing": 29 , "children": [
            { "nodeid": 29, "leaf": 0.0130585935 }, 
            { "nodeid": 30, "leaf": 0.40513435 }
          ]}, 
          { "nodeid": 18, "depth": 4, "split": "f9", "split_condition": 0.5, "yes": 31, "no": 32, "missing": 31 , "children": [
            { "nodeid": 31, "leaf": 0.25211218 }, 
            { "nodeid": 32, "leaf": 0.0206406992 }
          ]}
        ]}, 
        { "nodeid": 10, "depth": 3, "split": "f1", "split_condition": 61.9500008, "yes": 19, "no": 20, "missing": 19 , "children": [
          { "nodeid": 19, "depth": 4, "split": "f16", "split_condition": 0.5, "yes": 33, "no": 34, "missing": 33 , "children": [
            { "nodeid": 33, "leaf": -0.41044569 }, 
            { "nodeid": 34, "leaf": 0.00209369999 }
          ]}, 
          { "nodeid": 20, "depth": 4, "split": "f0", "split_condition": 1.05499995, "yes": 35, "no": 36, "missing": 35 , "children": [
            { "nodeid": 35, "leaf": -0.173305333 }, 
            { "nodeid": 36, "leaf": 0.257204384 }
          ]}
        ]}
      ]}, 
      { "nodeid": 6, "depth": 2, "split": "f0", "split_condition": 1.22500002, "yes": 11, "no": 12, "missing": 11 , "children": [
        { "nodeid": 11, "leaf": 0.00557881501 }, 
        { "nodeid": 12, "depth": 3, "split": "f2", "split_condition": 54.0499992, "yes": 21, "no": 22, "missing": 21 , "children": [
          { "nodeid": 21, "leaf": 0.0369559415 }, 
          { "nodeid": 22, "leaf": 0.295604914 }
        ]}
      ]}
    ]}
  ]},
  { "nodeid": 0, "depth": 0, "split": "f5", "split_condition": 3.44500017, "yes": 1, "no": 2, "missing": 1 , "children": [
    { "nodeid": 1, "depth": 1, "split": "f0", "split_condition": 0.495000005, "yes": 3, "no": 4, "missing": 3 , "children": [
      { "nodeid": 3, "leaf": -0.290311098 }, 
      { "nodeid": 4, "depth": 2, "split": "f8", "split_condition": 0.5, "yes": 7, "no": 8, "missing": 7 , "children": [
        { "nodeid": 7, "depth": 3, "split": "f9", "split_condition": 0.5, "yes": 13, "no": 14, "missing": 13 , "children": [
          { "nodeid": 13, "depth": 4, "split": "f16", "split_condition": 0.5, "yes": 23, "no": 24, "missing": 23 , "children": [
            { "nodeid": 23, "leaf": 0.0454209149 }, 
            { "nodeid": 24, "leaf": -0.24472174 }
          ]}, 
          { "nodeid": 14, "depth": 4, "split": "f5", "split_condition": 3.15500021, "yes": 25, "no": 26, "missing": 25 , "children": [
            { "nodeid": 25, "leaf": 0.0504838191 }, 
            { "nodeid": 26, "leaf": -0.326839566 }
          ]}
        ]}, 
        { "nodeid": 8, "depth": 3, "split": "f3", "split_condition": 5.07499981, "yes": 15, "no": 16, "missing": 15 , "children": [
          { "nodeid": 15, "leaf": -0.00104050071 }, 
          { "nodeid": 16, "depth": 4, "split": "f12", "split_condition": 0.5, "yes": 27, "no": 28, "missing": 27 , "children": [
            { "nodeid": 27, "leaf": -0.296253562 }, 
            { "nodeid": 28, "leaf": -0.132326379 }
          ]}
        ]}
      ]}
    ]}, 
    { "nodeid": 2, "depth": 1, "split": "f17", "split_condition": 0.5, "yes": 5, "no": 6, "missing": 5 , "children": [
      { "nodeid": 5, "depth": 2, "split": "f12", "split_condition": 0.5, "yes": 9, "no": 10, "missing": 9 , "children": [
        { "nodeid": 9, "depth": 3, "split": "f15", "split_condition": 0.5, "yes": 17, "no": 18, "missing": 17 , "children": [
          { "nodeid": 17, "depth": 4, "split": "f18", "split_condition": 0.5, "yes": 29, "no": 30, "missing": 29 , "children": [
            { "nodeid": 29, "leaf": -0.0340342037 }, 
            { "nodeid": 30, "leaf": 0.138218746 }
          ]}, 
          { "nodeid": 18, "depth": 4, "split": "f0", "split_condition": 0.894999981, "yes": 31, "no": 32, "missing": 31 , "children": [
            { "nodeid": 31, "leaf": 0.0643991157 }, 
            { "nodeid": 32, "leaf": 0.279852301 }
          ]}
        ]}, 
        { "nodeid": 10, "leaf": 0.358979881 }
      ]}, 
      { "nodeid": 6, "depth": 2, "split": "f4", "split_condition": 5.76500034, "yes": 11, "no": 12, "missing": 11 , "children": [
        { "nodeid": 11, "depth": 3, "split": "f9", "split_condition": 0.5, "yes": 19, "no": 20, "missing": 19 , "children": [
          { "nodeid": 19, "depth": 4, "split": "f10", "split_condition": 0.5, "yes": 33, "no": 34, "missing": 33 , "children": [
            { "nodeid": 33, "leaf": 0.225113913 }, 
            { "nodeid": 34, "leaf": -0.230417818 }
          ]}, 
          { "nodeid": 20, "depth": 4, "split": "f4", "split_condition": 5.7249999, "yes": 35, "no": 36, "missing": 35 , "children": [
            { "nodeid": 35, "leaf": -0.289133161 }, 
            { "nodeid": 36, "leaf": -0.0888418481 }
          ]}
        ]}, 
        { "nodeid": 12, "depth": 3, "split": "f5", "split_condition": 3.48500013, "yes": 21, "no": 22, "missing": 21 , "children": [
          { "nodeid": 21, "leaf": -0.00180337892 }, 
          { "nodeid": 22, "leaf": 0.332306355 }
        ]}
      ]}
    ]}
  ]},
  { "nodeid": 0, "depth": 0, "split": "f4", "split_condition": 5.81500006, "yes": 1, "no": 2, "missing": 1 , "children": [
    { "nodeid": 1, "depth": 1, "split": "f10", "split_condition": 0.5, "yes": 3, "no": 4, "missing": 3 , "children": [
      { "nodeid": 3, "depth": 2, "split": "f7", "split_condition": 0.5, "yes": 7, "no": 8, "missing": 7 , "children": [
        { "nodeid": 7, "depth": 3, "split": "f8", "split_condition": 0.5, "yes": 15, "no": 16, "missing": 15 , "children": [
          { "nodeid": 15, "depth": 4, "split": "f9", "split_condition": 0.5, "yes": 27, "no": 28, "missing": 27 , "children": [
            { "nodeid": 27, "leaf": 0.105274186 }, 
            { "nodeid": 28, "leaf": -0.155356258 }
          ]}, 
          { "nodeid": 16, "depth": 4, "split": "f3", "split_condition": 5.76500034, "yes": 29, "no": 30, "missing": 29 , "children": [
            { "nodeid": 29, "leaf": -0.122106455 }, 
            { "nodeid": 30, "leaf": -0.338764369 }
          ]}
        ]}, 
        { "nodeid": 8, "depth": 3, "split": "f16", "split_condition": 0.5, "yes": 17, "no": 18, "missing": 17 , "children": [
          { "nodeid": 17, "depth": 4, "split": "f13", "split_condition": 0.5, "yes": 31, "no": 32, "missing": 31 , "children": [
            { "nodeid": 31, "leaf": -0.039751552 }, 
            { "nodeid": 32, "leaf": -0.247036055 }
          ]}, 
          { "nodeid": 18, "depth": 4, "split": "f1", "split_condition": 61.9500008, "yes": 33, "no": 34, "missing": 33 , "children": [
            { "nodeid": 33, "leaf": -0.198736593 }, 
            { "nodeid": 34, "leaf": -0.397762984 }
          ]}
        ]}
      ]}, 
      { "nodeid": 4, "depth": 2, "split": "f4", "split_condition": 5.79500008, "yes": 9, "no": 10, "missing": 9 , "children": [
        { "nodeid": 9, "leaf": -0.303104252 }, 
        { "nodeid": 10, "leaf": -0.00492992671 }
      ]}
    ]}, 
    { "nodeid": 2, "depth": 1, "split": "f16", "split_condition": 0.5, "yes": 5, "no": 6, "missing": 5 , "children": [
      { "nodeid": 5, "depth": 2, "split": "f17", "split_condition": 0.5, "yes": 11, "no": 12, "missing": 11 , "children": [
        { "nodeid": 11, "depth": 3, "split": "f10", "split_condition": 0.5, "yes": 19, "no": 20, "missing": 19 , "children": [
          { "nodeid": 19, "depth": 4, "split": "f1", "split_condition": 60.3499985, "yes": 35, "no": 36, "missing": 35 , "children": [
            { "nodeid": 35, "leaf": -0.0858163536 }, 
            { "nodeid": 36, "leaf": 0.0463273339 }
          ]}, 
          { "nodeid": 20, "depth": 4, "split": "f4", "split_condition": 6.67500019, "yes": 37, "no": 38, "missing": 37 , "children": [
            { "nodeid": 37, "leaf": -0.180162549 }, 
            { "nodeid": 38, "leaf": 0.213302359 }
          ]}
        ]}, 
        { "nodeid": 12, "depth": 3, "split": "f3", "split_condition": 5.78499985, "yes": 21, "no": 22, "missing": 21 , "children": [
          { "nodeid": 21, "leaf": 0.0912806094 }, 
          { "nodeid": 22, "leaf": 0.327102274 }
        ]}
      ]}, 
      { "nodeid": 6, "depth": 2, "split": "f0", "split_condition": 0.834999979, "yes": 13, "no": 14, "missing": 13 , "children": [
        { "nodeid": 13, "depth": 3, "split": "f9", "split_condition": 0.5, "yes": 23, "no": 24, "missing": 23 , "children": [
          { "nodeid": 23, "depth": 4, "split": "f8", "split_condition": 0.5, "yes": 39, "no": 40, "missing": 39 , "children": [
            { "nodeid": 39, "leaf": 0.173643678 }, 
            { "nodeid": 40, "leaf": -0.109683506 }
          ]}, 
          { "nodeid": 24, "depth": 4, "split": "f4", "split_condition": 5.875, "yes": 41, "no": 42, "missing": 41 , "children": [
            { "nodeid": 41, "leaf": -0.373465419 }, 
            { "nodeid": 42, "leaf": -0.0120586334 }
          ]}
        ]}, 
        { "nodeid": 14, "depth": 3, "split": "f3", "split_condition": 6.05500031, "yes": 25, "no": 26, "missing": 25 , "children": [
          { "nodeid": 25, "depth": 4, "split": "f3", "split_condition": 6.03499985, "yes": 43, "no": 44, "missing": 43 , "children": [
            { "nodeid": 43, "leaf": 0.228636995 }, 
            { "nodeid": 44, "leaf": -0.124051064 }
          ]}, 
          { "nodeid": 26, "depth": 4, "split": "f5", "split_condition": 3.73500013, "yes": 45, "no": 46, "missing": 45 , "children": [
            { "nodeid": 45, "leaf": 0.0940934867 }, 
            { "nodeid": 46, "leaf": 0.283207715 }
          ]}
        ]}
      ]}
    ]}
  ]},
  { "nodeid": 0, "depth": 0, "split": "f0", "split_condition": 0.504999995, "yes": 1, "no": 2, "missing": 1 , "children": [
    { "nodeid": 1, "depth": 1, "split": "f12", "split_condition": 0.5, "yes": 3, "no": 4, "missing": 3 , "children": [
      { "nodeid": 3, "leaf": -0.287995845 }, 
      { "nodeid": 4, "leaf": 0.033207912 }
    ]}, 
    { "nodeid": 2, "depth": 1, "split": "f11", "split_condition": 0.5, "yes": 5, "no": 6, "missing": 5 , "children": [
      { "nodeid": 5, "depth": 2, "split": "f10", "split_condition": 0.5, "yes": 7, "no": 8, "missing": 7 , "children": [
        { "nodeid": 7, "depth": 3, "split": "f9", "split_condition": 0.5, "yes": 11, "no": 12, "missing": 11 , "children": [
          { "nodeid": 11, "depth": 4, "split": "f7", "split_condition": 0.5, "yes": 19, "no": 20, "missing": 19 , "children": [
            { "nodeid": 19, "leaf": 0.082663238 }, 
            { "nodeid": 20, "leaf": -0.0530652404 }
          ]}, 
          { "nodeid": 12, "depth": 4, "split": "f3", "split_condition": 5.67500019, "yes": 21, "no": 22, "missing": 21 , "children": [
            { "nodeid": 21, "leaf": -0.28548494 }, 
            { "nodeid": 22, "leaf": -0.0519078001 }
          ]}
        ]}, 
        { "nodeid": 8, "depth": 3, "split": "f4", "split_condition": 5.84500027, "yes": 13, "no": 14, "missing": 13 , "children": [
          { "nodeid": 13, "depth": 4, "split": "f18", "split_condition": 0.5, "yes": 23, "no": 24, "missing": 23 , "children": [
            { "nodeid": 23, "leaf": -0.289882958 }, 
            { "nodeid": 24, "leaf": -0.122750878 }
          ]}, 
          { "nodeid": 14, "depth": 4, "split": "f4", "split_condition": 6.7750001, "yes": 25, "no": 26, "missing": 25 , "children": [
            { "nodeid": 25, "leaf": -0.0756847188 }, 
            { "nodeid": 26, "leaf": 0.243475273 }
          ]}
        ]}
      ]}, 
      { "nodeid": 6, "depth": 2, "split": "f0", "split_condition": 1.17499995, "yes": 9, "no": 10, "missing": 9 , "children": [
        { "nodeid": 9, "depth": 3, "split": "f3", "split_condition": 6.06500006, "yes": 15, "no": 16, "missing": 15 , "children": [
          { "nodeid": 15, "leaf": -0.338047534 }, 
          { "nodeid": 16, "depth": 4, "split": "f0", "split_condition": 1.04499996, "yes": 27, "no": 28, "missing": 27 , "children": [
            { "nodeid": 27, "leaf": -0.0839587748 }, 
            { "nodeid": 28, "leaf": -0.379282564 }
          ]}
        ]}, 
        { "nodeid": 10, "depth": 3, "split": "f2", "split_condition": 56.0499992, "yes": 17, "no": 18, "missing": 17 , "children": [
          { "nodeid": 17, "leaf": -0.148402512 }, 
          { "nodeid": 18, "leaf": 0.260018885 }
        ]}
      ]}
    ]}
  ]},
  { "nodeid": 0, "depth": 0, "split": "f8", "split_condition": 0.5, "yes": 1, "no": 2, "missing": 1 , "children": [
    { "nodeid": 1, "depth": 1, "split": "f0", "split_condition": 0.495000005, "yes": 3, "no": 4, "missing": 3 , "children": [
      { "nodeid": 3, "leaf": -0.277866751 }, 
      { "nodeid": 4, "depth": 2, "split": "f11", "split_condition": 0.5, "yes": 7, "no": 8, "missing": 7 , "children": [
        { "nodeid": 7, "depth": 3, "split": "f7", "split_condition": 0.5, "yes": 13, "no": 14, "missing": 13 , "children": [
          { "nodeid": 13, "depth": 4, "split": "f9", "split_condition": 0.5, "yes": 25, "no": 26, "missing": 25 , "children": [
            { "nodeid": 25, "leaf": 0.0885500833 }, 
            { "nodeid": 26, "leaf": -0.059544161 }
          ]}, 
          { "nodeid": 14, "depth": 4, "split": "f0", "split_condition": 0.985000014, "yes": 27, "no": 28, "missing": 27 , "children": [
            { "nodeid": 27, "leaf": -0.0678131431 }, 
            { "nodeid": 28, "leaf": 0.200150713 }
          ]}
        ]}, 
        { "nodeid": 8, "depth": 3, "split": "f3", "split_condition": 6.06500006, "yes": 15, "no": 16, "missing": 15 , "children": [
          { "nodeid": 15, "leaf": -0.320738107 }, 
          { "nodeid": 16, "depth": 4, "split": "f5", "split_condition": 4.26500034, "yes": 29, "no": 30, "missing": 29 , "children": [
            { "nodeid": 29, "leaf": -0.0835039467 }, 
            { "nodeid": 30, "leaf": 0.217400327 }
          ]}
        ]}
      ]}
    ]}, 
    { "nodeid": 2, "depth": 1, "split": "f0", "split_condition": 0.894999981, "yes": 5, "no": 6, "missing": 5 , "children": [
      { "nodeid": 5, "depth": 2, "split": "f2", "split_condition": 57.0499992, "yes": 9, "no": 10, "missing": 9 , "children": [
        { "nodeid": 9, "depth": 3, "split": "f1", "split_condition": 62.25, "yes": 17, "no": 18, "missing": 17 , "children": [
          { "nodeid": 17, "depth": 4, "split": "f4", "split_condition": 5.58500004, "yes": 31, "no": 32, "missing": 31 , "children": [
            { "nodeid": 31, "leaf": -0.252475321 }, 
            { "nodeid": 32, "leaf": 0.0422487631 }
          ]}, 
          { "nodeid": 18, "depth": 4, "split": "f17", "split_condition": 0.5, "yes": 33, "no": 34, "missing": 33 , "children": [
            { "nodeid": 33, "leaf": -0.305397809 }, 
            { "nodeid": 34, "leaf": 0.147034571 }
          ]}
        ]}, 
        { "nodeid": 10, "depth": 3, "split": "f12", "split_condition": 0.5, "yes": 19, "no": 20, "missing": 19 , "children": [
          { "nodeid": 19, "depth": 4, "split": "f17", "split_condition": 0.5, "yes": 35, "no": 36, "missing": 35 , "children": [
            { "nodeid": 35, "leaf": -0.284279287 }, 
            { "nodeid": 36, "leaf": 0.0167281032 }
          ]}, 
          { "nodeid": 20, "depth": 4, "split": "f5", "split_condition": 3.44000006, "yes": 37, "no": 38, "missing": 37 , "children": [
