{"learner":{"attributes":{},"gradient_booster":{"model":{"gbtree_model_param":{"num_trees":"30","size_leaf_vector":"0"},"tree_info":[0,1,2,0,1,2,0,1,2,0,1,2,0,1,2,0,1,2,0,1,2,0,1,2,0,1,2,0,1,2],"trees":[{"base_weights":[3.2786842E-2,1.4314721E0,-7.31302E-1],"default_left":[true,false,false],"id":0,"leaf_child_counts":[0,0,0],"left_children":[1,-1,-1],"loss_changes":[6.623875E1,0E0,0E0],"parents":[2147483647,0,0],"right_children":[2,-1,-1],"split_conditions":[2.45E0,1.4314721E0,-7.31302E-1],"split_indices":[2,0,0],"sum_hessian":[5.9999996E1,2.0888887E1,3.9111107E1],"tree_param":{"num_deleted":"0","num_feature":"4","num_nodes":"3","size_leaf_vector":"0"}},{"base_weights":[-4.9180374E-2,-7.157361E-1,3.1578943E-1,1.2380953E0,-6.629835E-1,1.3668638E0,1.0344825E-1,-2.5544848E-8,-7.100592E-1,1.4140128E0,4.285714E-1],"default_left":[true,false,true,true,true,true,false,false,false,false,false],"id":1,"leaf_child_counts":[0,0,0,0,0,0,0,0,0,0,0],"left_children":[1,-1,3,5,7,9,-1,-1,-1,-1,-1],"loss_changes":[1.5065658E1,0E0,3.7030254E1,2.9268417E0,6.2767696E-1,2.2471237E-1,0E0,0E0,0E0,0E0,0E0],"parents":[2147483647,0,0,2,2,3,3,4,4,5,5],"right_children":[2,-1,4,6,8,10,-1,-1,-1,-1,-1],"split_conditions":[2.45E0,-7.157361E-1,1.75E0,4.95E0,4.8500004E0,1.55E0,1.0344825E-1,-2.5544848E-8,-7.100592E-1,1.4140128E0,4.285714E-1],"split_indices":[2,0,3,2,2,3,0,0,0,0,0],"sum_hessian":[5.9999996E1,2.0888887E1,3.9111107E1,1.9999998E1,1.911111E1,1.7777777E1,2.222222E0,1.3333333E0,1.7777777E1,1.6444443E1,1.3333333E0],"tree_param":{"num_deleted":"0","num_feature":"4","num_nodes":"11","size_leaf_vector":"0"}},{"base_weights":[1.6393399E-2,-6.585367E-1,1.3333334E0,-7.3087823E-1,5.9999996E-1],"default_left":[true,true,false,false,false],"id":2,"leaf_child_counts":[0,0,0,0,0],"left_children":[1,3,-1,-1,-1],"loss_changes":[5.509743E1,4.1713524E0,0E0,0E0,0E0],"parents":[2147483647,0,0,1,1],"right_children":[2,4,-1,-1,-1],"split_conditions":[1.6500001E0,4.95E0,1.3333334E0,-7.3087823E-1,5.9999996E-1],"split_indices":[3,2,0,0,0],"sum_hessian":[5.9999996E1,3.9999996E1,1.9999998E1,3.822222E1,1.7777777E0],"tree_param":{"num_deleted":"0","num_feature":"4","num_nodes":"5","size_leaf_vector":"0"}},{"base_weights":[-3.0769783E-3,5.758394E-1,-5.255135E-1],"default_left":[true,false,false],"id":3,"leaf_child_counts":[0,0,0],"left_children":[1,-1,-1],"loss_changes":[9.793503E0,0E0,0E0],"parents":[2147483647,0,0],"right_children":[2,-1,-1],"split_conditions":[2.45E0,5.758394E-1,-5.255135E-1],"split_indices":[2,0,0],"sum_hessian":[3.0380335E1,1.4362694E1,1.6017641E1],"tree_param":{"num_deleted":"0","num_feature":"4","num_nodes":"3","size_leaf_vector":"0"}},{"base_weights":[-4.079698E-3,-4.9146482E-1,1.7936505E-1,5.077907E-1,-3.9629942E-1,5.52229E-1,1.0807843E-2,1.3203254E-1,-4.93101E-1,2.649625E-2,5.915197E-1],"default_left":[true,false,true,true,true,true,false,false,false,false,false],"id":4,"leaf_child_counts":[0,0,0,0,0,0,0,0,0,0,0],"left_children":[1,-1,3,5,7,9,-1,-1,-1,-1,-1],"loss_changes":[2.965608E0,0E0,4.760515E0,3.4282637E-1,5.418575E-1,2.833705E-1,0E0,0E0,0E0,0E0,0E0],"parents":[2147483647,0,0,2,2,3,3,4,4,5,5],"right_children":[2,-1,4,6,8,10,-1,-1,-1,-1,-1],"split_conditions":[2.45E0,-4.9146482E-1,1.75E0,5.05E0,5.95E0,2.25E0,1.0807843E-2,1.3203254E-1,-4.93101E-1,2.649625E-2,5.915197E-1],"split_indices":[2,0,3,2,0,1,0,0,0,0,0],"sum_hessian":[3.1183344E1,8.068216E0,2.3115128E1,1.4793251E1,8.3218775E0,1.3477024E1,1.3162267E0,1.2322803E0,7.089597E0,1.0535998E0,1.2423425E1],"tree_param":{"num_deleted":"0","num_feature":"4","num_nodes":"11","size_leaf_vector":"0"}},{"base_weights":[6.9039105E-3,-4.581264E-1,4.8572275E-1,-5.191963E-1,7.1104266E-2,-8.06668E-3,5.8333987E-1,3.173831E-1,-3.203506E-1],"default_left":[true,true,true,false,false,true,false,false,false],"id":5,"leaf_child_counts":[0,0,0,0,0,0,0,0,0],"left_children":[1,3,5,-1,-1,7,-1,-1,-1],"loss_changes":[7.5713954E0,5.9468865E-1,8.119192E-1,0E0,0E0,4.8284778E-1,0E0,0E0,0E0],"parents":[2147483647,0,0,1,1,2,2,5,5],"right_children":[2,4,6,-1,-1,8,-1,-1,-1],"split_conditions":[4.8500004E0,1.6500001E0,1.75E0,-5.191963E-1,7.1104266E-2,1.55E0,5.8333987E-1,3.173831E-1,-3.203506E-1],"split_indices":[2,3,3,0,0,3,0,0,0],"sum_hessian":[3.2004128E1,1.6257757E1,1.5746368E1,1.4592801E1,1.6649566E0,2.7505033E0,1.2995865E1,1.338864E0,1.4116393E0],"tree_param":{"num_deleted":"0","num_feature":"4","num_nodes":"9","size_leaf_vector":"0"}},{"base_weights":[-1.7702479E-2,4.6600553E-1,-4.589684E-1],"default_left":[true,false,false],"id":6,"leaf_child_counts":[0,0,0],"left_children":[1,-1,-1],"loss_changes":[3.2827291E0,0E0,0E0],"parents":[2147483647,0,0],"right_children":[2,-1,-1],"split_conditions":[2.45E0,4.6600553E-1,-4.589684E-1],"split_indices":[2,0,0],"sum_hessian":[1.3377772E1,6.3552227E0,7.0225496E0],"tree_param":{"num_deleted":"0","num_feature":"4","num_nodes":"3","size_leaf_vector":"0"}},{"base_weights":[-1.0762212E-3,-4.0051764E-1,1.2666145E-1,3.099385E-1,-4.2638978E-1,1.1359225E-1,5.0533354E-1,3.1030208E-1,-3.7085864E-1],"default_left":[true,false,true,true,false,true,false,false,false],"id":7,"leaf_child_counts":[0,0,0,0,0,0,0,0,0],"left_children":[1,-1,3,5,-1,7,-1,-1,-1],"loss_changes":[9.204935E-1,0E0,1.5183367E0,3.588873E-1,0E0,7.537692E-1,0E0,0E0,0E0],"parents":[2147483647,0,0,2,2,3,3,5,5],"right_children":[2,-1,4,6,-1,8,-1,-1,-1],"split_conditions":[2.45E0,-4.0051764E-1,5.1499996E0,2.85E0,-4.2638978E-1,1.6500001E0,5.0533354E-1,3.1030208E-1,-3.7085864E-1],"split_indices":[2,0,2,1,0,3,0,0,0],"sum_hessian":[1.6046255E1,3.370641E0,1.2675615E1,9.850739E0,2.8248765E0,5.7021637E0,4.148575E0,4.311122E0,1.3910414E0],"tree_param":{"num_deleted":"0","num_feature":"4","num_nodes":"9","size_leaf_vector":"0"}},{"base_weights":[1.5760558E-2,-3.6414388E-1,3.4435242E-1,-4.4666943E-1,1.9664936E-2,1.30744865E-2,4.6907592E-1,2.5489587E-1,-2.0673884E-1],"default_left":[true,true,true,false,false,true,false,false,false],"id":8,"leaf_child_counts":[0,0,0,0,0,0,0,0,0],"left_children":[1,3,5,-1,-1,7,-1,-1,-1],"loss_changes":[2.2867126E0,2.785157E-1,3.9869153E-1,0E0,0E0,2.498246E-1,0E0,0E0,0E0],"parents":[2147483647,0,0,1,1,2,2,5,5],"right_children":[2,4,6,-1,-1,8,-1,-1,-1],"split_conditions":[4.8500004E0,1.6500001E0,1.75E0,-4.4666943E-1,1.9664936E-2,1.55E0,4.6907592E-1,2.5489587E-1,-2.0673884E-1],"split_indices":[2,3,3,0,0,3,0,0,0],"sum_hessian":[1.6313612E1,7.5158725E0,8.797739E0,6.0510178E0,1.4648548E0,2.708506E0,6.0892324E0,1.2136939E0,1.4948123E0],"tree_param":{"num_deleted":"0","num_feature":"4","num_nodes":"9","size_leaf_vector":"0"}},{"base_weights":[-3.2611668E-2,3.8219026E-1,-3.9446324E-1],"default_left":[true,false,false],"id":9,"leaf_child_counts":[0,0,0],"left_children":[1,-1,-1],"loss_changes":[1.228274E0,0E0,0E0],"parents":[2147483647,0,0],"right_children":[2,-1,-1],"split_conditions":[2.45E0,3.8219026E-1,-3.9446324E-1],"split_indices":[2,0,0],"sum_hessian":[6.1787977E0,2.8525836E0,3.326214E0],"tree_param":{"num_deleted":"0","num_feature":"4","num_nodes":"3","size_leaf_vector":"0"}},{"base_weights":[-1.777542E-2,7.58493E-2,-3.575062E-1,-3.0602217E-1,1.902621E-1,1.9490808E-2,3.563999E-1,2.947382E-1,-1.6525629E-1],"default_left":[true,true,false,false,true,true,false,false,false],"id":10,"leaf_child_counts":[0,0,0,0,0,0,0,0,0],"left_children":[1,3,-1,-1,5,7,-1,-1,-1],"loss_changes":[3.6839774E-1,4.6177837E-1,0E0,0E0,2.1218961E-1,2.9618144E-1,0E0,0E0,0E0],"parents":[2147483647,0,0,1,1,4,4,5,5],"right_children":[2,4,-1,-1,6,8,-1,-1,-1],"split_conditions":[5.1499996E0,2.45E0,-3.575062E-1,-3.0602217E-1,2.85E0,1.45E0,3.563999E-1,2.947382E-1,-1.6525629E-1],"split_indices":[2,2,0,0,1,3,0,0,0],"sum_hessian":[9.729685E0,8.236551E0,1.4931334E0,1.512757E0,6.723794E0,3.8666365E0,2.8571575E0,1.3138392E0,2.5527973E0],"tree_param":{"num_deleted":"0","num_feature":"4","num_nodes":"9","size_leaf_vector":"0"}},{"base_weights":[3.9670344E-2,-1.9287878E-1,3.5033783E-1,1.5333618E-1,-4.1126424E-1,1.0165951E-1,4.2707807E-1,-2.4450468E-2,2.653019E-1,-4.8567712E-1,-1.4938289E-1],"default_left":[true,true,true,true,true,false,false,false,false,false,false],"id":11,"leaf_child_counts":[0,0,0,0,0,0,0,0,0,0,0],"left_children":[1,3,5,7,9,-1,-1,-1,-1,-1,-1],"loss_changes":[8.4126145E-1,5.748954E-1,5.0849438E-2,7.3109224E-2,1.3634682E-2,0E0,0E0,0E0,0E0,0E0,0E0],"parents":[2147483647,0,0,1,1,2,2,3,3,4,4],"right_children":[2,4,6,8,10,-1,-1,-1,-1,-1,-1],"split_conditions":[5.05E0,2.85E0,6.3500004E0,4.65E0,5.95E0,1.0165951E-1,4.2707807E-1,-2.4450468E-2,2.653019E-1,-4.8567712E-1,-1.4938289E-1],"split_indices":[2,1,0,2,0,0,0,0,0,0,0],"sum_hessian":[9.7091675E0,5.7695427E0,3.939625E0,2.3468518E0,3.422691E0,1.4772588E0,2.4623663E0,1.2089021E0,1.1379497E0,1.9998653E0,1.4228257E0],"tree_param":{"num_deleted":"0","num_feature":"4","num_nodes":"11","size_leaf_vector":"0"}},{"base_weights":[-5.1748175E-2,2.936959E-1,-3.263809E-1],"default_left":[true,false,false],"id":12,"leaf_child_counts":[0,0,0],"left_children":[1,-1,-1],"loss_changes":[4.915037E-1,0E0,0E0],"parents":[2147483647,0,0],"right_children":[2,-1,-1],"split_conditions":[2.45E0,2.936959E-1,-3.263809E-1],"split_indices":[2,0,0],"sum_hessian":[3.1704001E0,1.3734306E0,1.7969697E0],"tree_param":{"num_deleted":"0","num_feature":"4","num_nodes":"3","size_leaf_vector":"0"}},{"base_weights":[-1.1949676E-2,-2.1092524E-1,5.8867328E-2,1.8767971E-1,-1.4520107E-1,2.9772583E-1,2.9151073E-2,7.736335E-2,-2.8323218E-1],"default_left":[true,false,true,true,true,false,false,false,false],"id":13,"leaf_child_counts":[0,0,0,0,0,0,0,0,0],"left_children":[1,-1,3,5,7,-1,-1,-1,-1],"loss_changes":[1.2861775E-1,0E0,2.0767565E-1,7.233657E-2,1.208273E-1,0E0,0E0,0E0,0E0],"parents":[2147483647,0,0,2,2,3,3,4,4],"right_children":[2,-1,4,6,8,-1,-1,-1,-1],"split_conditions":[5.45E0,-2.1092524E-1,1.75E0,4.95E0,4.8500004E0,2.9772583E-1,2.9151073E-2,7.736335E-2,-2.8323218E-1],"split_indices":[0,0,3,2,2,0,0,0,0],"sum_hessian":[7.2465653E0,1.3828098E0,5.8637557E0,3.643935E0,2.2198205E0,1.632584E0,2.011351E0,1.0179607E0,1.20186E0],"tree_param":{"num_deleted":"0","num_feature":"4","num_nodes":"9","size_leaf_vector":"0"}},{"base_weights":[3.8589012E-2,-2.8318492E-1,1.3967618E-1,2.1481404E-1,-1.447917E-1,4.1110486E-2,3.7349224E-1,1.9710726E-1,-8.6839825E-2],"default_left":[true,false,true,true,false,true,false,false,false],"id":14,"leaf_child_counts":[0,0,0,0,0,0,0,0,0],"left_children":[1,-1,3,5,-1,7,-1,-1,-1],"loss_changes":[3.0452678E-1,0E0,1.7791234E-1,1.4550266E-1,0E0,9.515512E-2,0E0,0E0,0E0],"parents":[2147483647,0,0,2,2,3,3,5,5],"right_children":[2,-1,4,6,-1,8,-1,-1,-1],"split_conditions":[1.45E0,-2.8318492E-1,3.15E0,1.75E0,-1.447917E-1,2.6E0,3.7349224E-1,1.9710726E-1,-8.6839825E-2],"split_indices":[3,0,1,3,0,1,0,0,0],"sum_hessian":[7.146181E0,1.2776996E0,5.8684816E0,4.835986E0,1.0324954E0,2.9097695E0,1.9262166E0,1.0676249E0,1.8421447E0],"tree_param":{"num_deleted":"0","num_feature":"4","num_nodes":"9","size_leaf_vector":"0"}},{"base_weights":[-4.9726736E-2],"default_left":[false],"id":15,"leaf_child_counts":[0],"left_children":[-1],"loss_changes":[0E0],"parents":[2147483647],"right_children":[-1],"split_conditions":[-4.9726736E-2],"split_indices":[0],"sum_hessian":[1.9698772E0],"tree_param":{"num_deleted":"0","num_feature":"4","num_nodes":"1","size_leaf_vector":"0"}},{"base_weights":[-2.9265394E-3,1.2914154E-1,-8.934397E-2,1.11867055E-1,-3.465091E-1,2.2385653E-2,1.5537845E-1],"default_left":[true,false,true,true,false,false,false],"id":16,"leaf_child_counts":[0,0,0,0,0,0,0],"left_children":[1,-1,3,5,-1,-1,-1],"loss_changes":[8.861728E-2,0E0,2.8058845E-1,9.673558E-3,0E0,0E0,0E0],"parents":[2147483647,0,0,2,2,3,3],"right_children":[2,-1,4,6,-1,-1,-1],"split_conditions":[2.75E0,1.2914154E-1,5.05E0,3.05E0,-3.465091E-1,2.2385653E-2,1.5537845E-1],"split_indices":[1,0,2,1,0,0,0],"sum_hessian":[5.753646E0,2.0801892E0,3.6734567E0,2.3779225E0,1.2955341E0,1.2734808E0,1.1044419E0],"tree_param":{"num_deleted":"0","num_feature":"4","num_nodes":"7","size_leaf_vector":"0"}},{"base_weights":[2.5195094E-2,-7.576679E-2,2.949457E-1,3.0223988E-2,-2.7868724E-1,-1.0262796E-1,1.744234E-1],"default_left":[true,true,false,true,false,false,false],"id":17,"leaf_child_counts":[0,0,0,0,0,0,0],"left_children":[1,3,-1,5,-1,-1,-1],"loss_changes":[2.0334928E-1,1.2954685E-1,0E0,1.0605302E-1,0E0,0E0,0E0],"parents":[2147483647,0,0,1,1,3,3],"right_children":[2,4,-1,6,-1,-1,-1],"split_conditions":[5.1499996E0,3.05E0,2.949457E-1,1.6500001E0,-2.7868724E-1,-1.0262796E-1,1.744234E-1],"split_indices":[2,1,0,3,0,0,0],"sum_hessian":[5.646055E0,4.6316504E0,1.0144049E0,3.6015298E0,1.0301205E0,2.0245702E0,1.5769596E0],"tree_param":{"num_deleted":"0","num_feature":"4","num_nodes":"7","size_leaf_vector":"0"}},{"base_weights":[-1.2531405E-2],"default_left":[false],"id":18,"leaf_child_counts":[0],"left_children":[-1],"loss_changes":[0E0],"parents":[2147483647],"right_children":[-1],"split_conditions":[-1.2531405E-2],"split_indices":[0],"sum_hessian":[1.8325646E0],"tree_param":{"num_deleted":"0","num_feature":"4","num_nodes":"1","size_leaf_vector":"0"}},{"base_weights":[-1.078341E-2,-1.752716E-1,5.6314483E-2,1.9129352E-1,-2.3027083E-2,1.2968108E-1,-1.2510246E-1],"default_left":[true,false,true,false,true,false,false],"id":19,"leaf_child_counts":[0,0,0,0,0,0,0],"left_children":[1,-1,3,-1,5,-1,-1],"loss_changes":[7.8573756E-2,0E0,5.986064E-2,0E0,8.097162E-2,0E0,0E0],"parents":[2147483647,0,0,2,2,4,4],"right_children":[2,-1,4,-1,6,-1,-1],"split_conditions":[5.45E0,-1.752716E-1,5.95E0,1.9129352E-1,2.75E0,1.2968108E-1,-1.2510246E-1],"split_indices":[0,0,0,0,1,0,0],"sum_hessian":[5.224935E0,1.0467314E0,4.1782036E0,1.024415E0,3.1537886E0,1.1551706E0,1.9986179E0],"tree_param":{"num_deleted":"0","num_feature":"4","num_nodes":"7","size_leaf_vector":"0"}},{"base_weights":[1.7353704E-2,8.477038E-2,-1.4657278E-1,-2.2026509E-2,1.5690844E-1],"default_left":[true,true,false,false,false],"id":20,"leaf_child_counts":[0,0,0,0,0],"left_children":[1,3,-1,-1,-1],"loss_changes":[7.77782E-2,4.061966E-2,0E0,0E0,0E0],"parents":[2147483647,0,0,1,1],"right_children":[2,4,-1,-1,-1],"split_conditions":[3.05E0,2.75E0,-1.4657278E-1,-2.2026509E-2,1.5690844E-1],"split_indices":[1,1,0,0,0],"sum_hessian":[4.913576E0,3.8238492E0,1.0897267E0,1.8216487E0,2.0022006E0],"tree_param":{"num_deleted":"0","num_feature":"4","num_nodes":"5","size_leaf_vector":"0"}},{"base_weights":[-2.287862E-2],"default_left":[false],"id":21,"leaf_child_counts":[0],"left_children":[-1],"loss_changes":[0E0],"parents":[2147483647],"right_children":[-1],"split_conditions":[-2.287862E-2],"split_indices":[0],"sum_hessian":[1.7306844E0],"tree_param":{"num_deleted":"0","num_feature":"4","num_nodes":"1","size_leaf_vector":"0"}},{"base_weights":[4.7754645E-3,-1.2044137E-1,5.7304017E-2,1.3092598E-1,-8.568461E-2,-7.923189E-2,2.989161E-1],"default_left":[true,false,true,true,false,false,false],"id":22,"leaf_child_counts":[0,0,0,0,0,0,0],"left_children":[1,-1,3,5,-1,-1,-1],"loss_changes":[4.600888E-2,0E0,6.2444687E-2,1.5105498E-1,0E0,0E0,0E0],"parents":[2147483647,0,0,2,2,3,3],"right_children":[2,-1,4,6,-1,-1,-1],"split_conditions":[5.55E0,-1.2044137E-1,1.75E0,1.55E0,-8.568461E-2,-7.923189E-2,2.989161E-1],"split_indices":[0,0,3,3,0,0,0],"sum_hessian":[4.9456253E0,1.0794864E0,3.8661387E0,2.6077974E0,1.2583414E0,1.3932176E0,1.2145798E0],"tree_param":{"num_deleted":"0","num_feature":"4","num_nodes":"7","size_leaf_vector":"0"}},{"base_weights":[5.9989677E-3,-8.113085E-2,1.4452066E-1,1.4312173E-1,-2.0601211E-1,-3.1591177E-1,4.5501217E-3],"default_left":[true,true,false,false,true,false,false],"id":23,"leaf_child_counts":[0,0,0,0,0,0,0],"left_children":[1,3,-1,-1,5,-1,-1],"loss_changes":[8.0294095E-2,1.4509003E-1,0E0,0E0,7.228072E-2,0E0,0E0],"parents":[2147483647,0,0,1,1,4,4],"right_children":[2,4,-1,-1,6,-1,-1],"split_conditions":[1.75E0,2.55E0,1.4452066E-1,1.4312173E-1,5.05E0,-3.1591177E-1,4.5501217E-3],"split_indices":[3,1,0,0,2,0,0],"sum_hessian":[4.681242E0,3.1280286E0,1.5532132E0,1.0666159E0,2.0614128E0,1.0257262E0,1.0356866E0],"tree_param":{"num_deleted":"0","num_feature":"4","num_nodes":"7","size_leaf_vector":"0"}},{"base_weights":[-3.4301493E-2],"default_left":[false],"id":24,"leaf_child_counts":[0],"left_children":[-1],"loss_changes":[0E0],"parents":[2147483647],"right_children":[-1],"split_conditions":[-3.4301493E-2],"split_indices":[0],"sum_hessian":[1.5659548E0],"tree_param":{"num_deleted":"0","num_feature":"4","num_nodes":"1","size_leaf_vector":"0"}},{"base_weights":[1.1548802E-2,7.3875934E-2,-6.432383E-2,-8.383156E-2,1.7223036E-1],"default_left":[true,true,false,false,false],"id":25,"leaf_child_counts":[0,0,0,0,0],"left_children":[1,3,-1,-1,-1],"loss_changes":[3.1264402E-2,6.940107E-2,0E0,0E0,0E0],"parents":[2147483647,0,0,1,1],"right_children":[2,4,-1,-1,-1],"split_conditions":[4.95E0,5.55E0,-6.432383E-2,-8.383156E-2,1.7223036E-1],"split_indices":[2,0,0,0,0],"sum_hessian":[4.606439E0,2.543415E0,2.0630243E0,1.0336523E0,1.5097628E0],"tree_param":{"num_deleted":"0","num_feature":"4","num_nodes":"5","size_leaf_vector":"0"}},{"base_weights":[4.4239312E-3,-1.2932296E-1,1.2088049E-1],"default_left":[true,false,false],"id":26,"leaf_child_counts":[0,0,0],"left_children":[1,-1,-1],"loss_changes":[9.755727E-2,0E0,0E0],"parents":[2147483647,0,0],"right_children":[2,-1,-1],"split_conditions":[4.95E0,-1.2932296E-1,1.2088049E-1],"split_indices":[2,0,0],"sum_hessian":[4.2597713E0,1.931276E0,2.3284955E0],"tree_param":{"num_deleted":"0","num_feature":"4","num_nodes":"3","size_leaf_vector":"0"}},{"base_weights":[-2.4290647E-2],"default_left":[false],"id":27,"leaf_child_counts":[0],"left_children":[-1],"loss_changes":[0E0],"parents":[2147483647],"right_children":[-1],"split_conditions":[-2.4290647E-2],"split_indices":[0],"sum_hessian":[1.4658177E0],"tree_param":{"num_deleted":"0","num_feature":"4","num_nodes":"1","size_leaf_vector":"0"}},{"base_weights":[8.08548E-3,9.296291E-2,-5.795772E-2,-1.7462486E-1,7.42593E-2],"default_left":[true,false,true,false,false],"id":28,"leaf_child_counts":[0,0,0,0,0],"left_children":[1,-1,3,-1,-1],"loss_changes":[3.5658497E-2,0E0,6.931593E-2,0E0,0E0],"parents":[2147483647,0,0,2,2],"right_children":[2,-1,4,-1,-1],"split_conditions":[2.75E0,9.296291E-2,1.6500001E0,-1.7462486E-1,7.42593E-2],"split_indices":[1,0,3,0,0],"sum_hessian":[4.4000826E0,1.7471157E0,2.6529667E0,1.238968E0,1.4139987E0],"tree_param":{"num_deleted":"0","num_feature":"4","num_nodes":"5","size_leaf_vector":"0"}},{"base_weights":[3.2189188E-3,-7.168324E-2,1.203972E-1,7.793358E-3,-1.1957966E-1],"default_left":[true,true,false,false,false],"id":29,"leaf_child_counts":[0,0,0,0,0],"left_children":[1,3,-1,-1,-1],"loss_changes":[5.2898813E-2,1.5030688E-2,0E0,0E0,0E0],"parents":[2147483647,0,0,1,1],"right_children":[2,4,-1,-1,-1],"split_conditions":[1.75E0,1.55E0,1.203972E-1,7.793358E-3,-1.1957966E-1],"split_indices":[3,3,0,0,0],"sum_hessian":[4.043731E0,2.7037241E0,1.3400071E0,1.3315359E0,1.3721881E0],"tree_param":{"num_deleted":"0","num_feature":"4","num_nodes":"5","size_leaf_vector":"0"}}]},"name":"gbtree"},"learner_model_param":{"base_score":"5E-1","num_class":"3","num_feature":"4"},"objective":{"name":"multi:softmax","softmax_multiclass_param":{"num_class":"3"}}},"version":[1,2,0]}